{"learner":{"attributes":{"scikit_learn":"{\"_estimator_type\": \"regressor\"}"},"feature_names":[],"feature_types":[],"gradient_booster":{"model":{"gbtree_model_param":{"num_parallel_tree":"1","num_trees":"500"},"iteration_indptr":[0,1,2,3,4,5,6,7,8,9,10,11,12,13,14,15,16,17,18,19,20,21,22,23,24,25,26,27,28,29,30,31,32,33,34,35,36,37,38,39,40,41,42,43,44,45,46,47,48,49,50,51,52,53,54,55,56,57,58,59,60,61,62,63,64,65,66,67,68,69,70,71,72,73,74,75,76,77,78,79,80,81,82,83,84,85,86,87,88,89,90,91,92,93,94,95,96,97,98,99,100,101,102,103,104,105,106,107,108,109,110,111,112,113,114,115,116,117,118,119,120,121,122,123,124,125,126,127,128,129,130,131,132,133,134,135,136,137,138,139,140,141,142,143,144,145,146,147,148,149,150,151,152,153,154,155,156,157,158,159,160,161,162,163,164,165,166,167,168,169,170,171,172,173,174,175,176,177,178,179,180,181,182,183,184,185,186,187,188,189,190,191,192,193,194,195,196,197,198,199,200,201,202,203,204,205,206,207,208,209,210,211,212,213,214,215,216,217,218,219,220,221,222,223,224,225,226,227,228,229,230,231,232,233,234,235,236,237,238,239,240,241,242,243,244,245,246,247,248,249,250,251,252,253,254,255,256,257,258,259,260,261,262,263,264,265,266,267,268,269,270,271,272,273,274,275,276,277,278,279,280,281,282,283,284,285,286,287,288,289,290,291,292,293,294,295,296,297,298,299,300,301,302,303,304,305,306,307,308,309,310,311,312,313,314,315,316,317,318,319,320,321,322,323,324,325,326,327,328,329,330,331,332,333,334,335,336,337,338,339,340,341,342,343,344,345,346,347,348,349,350,351,352,353,354,355,356,357,358,359,360,361,362,363,364,365,366,367,368,369,370,371,372,373,374,375,376,377,378,379,380,381,382,383,384,385,386,387,388,389,390,391,392,393,394,395,396,397,398,399,400,401,402,403,404,405,406,407,408,409,410,411,412,413,414,415,416,417,418,419,420,421,422,423,424,425,426,427,428,429,430,431,432,433,434,435,436,437,438,439,440,441,442,443,444,445,446,447,448,449,450,451,452,453,454,455,456,457,458,459,460,461,462,463,464,465,466,467,468,469,470,471,472,473,474,475,476,477,478,479,480,481,482,483,484,485,486,487,488,489,490,491,492,493,494,495,496,497,498,499,500],"tree_info":[0,0,0,0,0,0,0,0,0,0,0,0,0,0,0,0,0,0,0,0,0,0,0,0,0,0,0,0,0,0,0,0,0,0,0,0,0,0,0,0,0,0,0,0,0,0,0,0,0,0,0,0,0,0,0,0,0,0,0,0,0,0,0,0,0,0,0,0,0,0,0,0,0,0,0,0,0,0,0,0,0,0,0,0,0,0,0,0,0,0,0,0,0,0,0,0,0,0,0,0,0,0,0,0,0,0,0,0,0,0,0,0,0,0,0,0,0,0,0,0,0,0,0,0,0,0,0,0,0,0,0,0,0,0,0,0,0,0,0,0,0,0,0,0,0,0,0,0,0,0,0,0,0,0,0,0,0,0,0,0,0,0,0,0,0,0,0,0,0,0,0,0,0,0,0,0,0,0,0,0,0,0,0,0,0,0,0,0,0,0,0,0,0,0,0,0,0,0,0,0,0,0,0,0,0,0,0,0,0,0,0,0,0,0,0,0,0,0,0,0,0,0,0,0,0,0,0,0,0,0,0,0,0,0,0,0,0,0,0,0,0,0,0,0,0,0,0,0,0,0,0,0,0,0,0,0,0,0,0,0,0,0,0,0,0,0,0,0,0,0,0,0,0,0,0,0,0,0,0,0,0,0,0,0,0,0,0,0,0,0,0,0,0,0,0,0,0,0,0,0,0,0,0,0,0,0,0,0,0,0,0,0,0,0,0,0,0,0,0,0,0,0,0,0,0,0,0,0,0,0,0,0,0,0,0,0,0,0,0,0,0,0,0,0,0,0,0,0,0,0,0,0,0,0,0,0,0,0,0,0,0,0,0,0,0,0,0,0,0,0,0,0,0,0,0,0,0,0,0,0,0,0,0,0,0,0,0,0,0,0,0,0,0,0,0,0,0,0,0,0,0,0,0,0,0,0,0,0,0,0,0,0,0,0,0,0,0,0,0,0,0,0,0,0,0,0,0,0,0,0,0,0,0,0,0,0,0,0,0,0,0,0,0,0,0,0,0,0,0,0,0,0,0,0,0,0,0,0,0,0,0,0,0,0,0,0,0,0,0,0,0,0,0,0,0,0,0,0,0,0,0,0,0,0,0,0,0,0,0,0,0,0,0,0,0,0,0,0,0,0],"trees":[{"base_weights":[2.394629E-3,-9.589779E-1,4.9537897E-1,-1.3616492E0,-5.574106E-1,2.7223966E-1,8.379801E-1,-1.5490942E0,-1.1543208E0,-9.207206E-1,-2.2075729E-1,-3.9721128E-1,5.5818623E-1,4.5397627E-1,1.1156107E0,-1.637451E-1,-1.435396E-1,-1.375322E0,-9.9780047E-1,-1.1801257E0,-7.1041054E-1,-4.925552E-1,2.8891407E-2,-9.3357563E-1,-1.20922826E-1,2.0228785E-1,8.9579767E-1,7.4623294E-2,7.890172E-1,9.7082955E-1,1.3531128E0,-1.5027145E-1,-1.2736444E-1,-1.1229291E-1,-8.85462E-2,-1.3632444E-1,-1.0405823E-1,-8.540177E-2,-5.5307813E-2,-6.188302E-2,-3.4977514E-2,-1.4287963E-2,1.6610898E-2,-1.1839588E-1,-7.120097E-2,-4.118259E-2,2.8048575E-2,-5.4383814E-2,5.316576E-2,7.141583E-2,1.1260797E-1,-1.1291205E-2,2.655474E-2,5.0598305E-2,9.639244E-2,5.160855E-2,1.1948264E-1,1.242793E-1,1.4523561E-1],"categories":[],"categories_nodes":[],"categories_segments":[],"categories_sizes":[],"default_left":[0,0,0,0,0,0,0,0,0,0,0,0,0,0,0,0,0,0,0,0,0,0,0,0,0,0,0,0,0,0,0,0,0,0,0,0,0,0,0,0,0,0,0,0,0,0,0,0,0,0,0,0,0,0,0,0,0,0,0],"id":0,"left_children":[1,3,5,7,9,11,13,15,17,19,21,23,25,27,29,-1,-1,31,33,35,37,39,41,43,45,47,49,51,53,55,57,-1,-1,-1,-1,-1,-1,-1,-1,-1,-1,-1,-1,-1,-1,-1,-1,-1,-1,-1,-1,-1,-1,-1,-1,-1,-1,-1,-1],"loss_changes":[2.662131E3,3.0711707E2,2.8362238E2,3.5131226E1,1.16602356E2,4.3093286E2,1.5557239E2,2.6324463E0,1.436676E1,2.4202576E1,3.3737663E1,9.9768036E1,1.8930377E2,7.823396E1,2.7879883E1,0E0,0E0,4.953308E-1,2.8009949E0,3.7942505E0,5.3117523E0,4.074581E0,6.151934E0,1.18611145E1,5.2195366E1,1.8927191E2,3.3034912E1,1.0413439E1,1.5700302E1,5.347165E1,1.6876221E0,0E0,0E0,0E0,0E0,0E0,0E0,0E0,0E0,0E0,0E0,0E0,0E0,0E0,0E0,0E0,0E0,0E0,0E0,0E0,0E0,0E0,0E0,0E0,0E0,0E0,0E0,0E0,0E0],"parents":[2147483647,0,0,1,1,2,2,3,3,4,4,5,5,6,6,7,7,8,8,9,9,10,10,11,11,12,12,13,13,14,14,17,17,18,18,19,19,20,20,21,21,22,22,23,23,24,24,25,25,26,26,27,27,28,28,29,29,30,30],"right_children":[2,4,6,8,10,12,14,16,18,20,22,24,26,28,30,-1,-1,32,34,36,38,40,42,44,46,48,50,52,54,56,58,-1,-1,-1,-1,-1,-1,-1,-1,-1,-1,-1,-1,-1,-1,-1,-1,-1,-1,-1,-1,-1,-1,-1,-1,-1,-1,-1,-1],"split_conditions":[-2.4469551E-1,-2.8052974E-1,-7.148715E-2,-2.988314E-1,6.6609204E-1,-1.2736762E-1,-2.1450981E-1,-3.067703E-1,4.6015313E-1,-1.2311009E-1,-2.6291865E-1,-7.7741534E-1,-1.1929559E0,9.307719E-1,6.913852E-1,-1.637451E-1,-1.435396E-1,-3.4107363E-1,-2.9012045E-1,-6.743768E-1,-2.6202354E-1,-2.7123916E-1,1.2462455E0,-1.0818317E0,-1.7901039E-1,2.0577425E-1,-1.816304E-2,4.891781E-1,-2.3208934E-1,-1.8761548E-1,-2.0064887E-1,-1.5027145E-1,-1.2736444E-1,-1.1229291E-1,-8.85462E-2,-1.3632444E-1,-1.0405823E-1,-8.540177E-2,-5.5307813E-2,-6.188302E-2,-3.4977514E-2,-1.4287963E-2,1.6610898E-2,-1.1839588E-1,-7.120097E-2,-4.118259E-2,2.8048575E-2,-5.4383814E-2,5.316576E-2,7.141583E-2,1.1260797E-1,-1.1291205E-2,2.655474E-2,5.0598305E-2,9.639244E-2,5.160855E-2,1.1948264E-1,1.242793E-1,1.4523561E-1],"split_indices":[8,8,0,8,0,8,8,8,0,0,8,0,0,0,0,0,0,0,8,0,8,8,0,0,8,8,8,0,8,8,8,0,0,0,0,0,0,0,0,0,0,0,0,0,0,0,0,0,0,0,0,0,0,0,0,0,0,0,0],"split_type":[0,0,0,0,0,0,0,0,0,0,0,0,0,0,0,0,0,0,0,0,0,0,0,0,0,0,0,0,0,0,0,0,0,0,0,0,0,0,0,0,0,0,0,0,0,0,0,0,0,0,0,0,0,0,0,0,0,0,0],"sum_hessian":[5.615E3,1.903E3,3.712E3,9.49E2,9.54E2,2.249E3,1.463E3,4.95E2,4.54E2,4.58E2,4.96E2,6.73E2,1.576E3,6.15E2,8.48E2,2.71E2,2.24E2,1.85E2,2.69E2,2.03E2,2.55E2,2.37E2,2.59E2,2.28E2,4.45E2,7.68E2,8.08E2,2.89E2,3.26E2,5.3E2,3.18E2,7.6E1,1.09E2,1.23E2,1.46E2,8.4E1,1.19E2,1.31E2,1.24E2,1.24E2,1.13E2,1.15E2,1.44E2,1.05E2,1.23E2,2.58E2,1.87E2,2.35E2,5.33E2,4.54E2,3.54E2,1.46E2,1.43E2,1.26E2,2E2,1.76E2,3.54E2,1.57E2,1.61E2],"tree_param":{"num_deleted":"0","num_feature":"17","num_nodes":"59","size_leaf_vector":"1"}},{"base_weights":[5.553922E-3,-8.7694114E-1,4.390464E-1,-1.2669894E0,-5.58134E-1,1.9786294E-1,7.0439947E-1,-1.4150882E0,-1.1099553E0,-9.6338826E-1,-3.504699E-1,-5.184672E-1,4.8649895E-1,3.1535053E-1,9.2580193E-1,-1.4740507E-1,-1.3068661E-1,-1.2808032E-1,-9.8325753E-1,-1.1599867E0,-8.2278156E-1,-6.0330045E-1,-1.2826961E-1,-8.815484E-1,-2.5990528E-1,1.5850532E-1,7.7558917E-1,-7.948367E-2,5.9967434E-1,7.752852E-1,1.13686E0,-1.06742345E-1,-8.68377E-2,-1.3140272E-1,-1.04927175E-1,-9.763416E-2,-6.799876E-2,-7.232385E-2,-5.0692555E-2,-3.453652E-2,3.2037538E-3,-1.1701423E-1,-7.307174E-2,-6.0945924E-2,1.1079995E-3,-4.7122505E-2,5.0175752E-2,3.0632628E-2,9.3653135E-2,-3.5401374E-2,6.666069E-3,3.8663577E-2,7.955232E-2,3.7124913E-2,1.1262206E-1,1.0205811E-1,1.277072E-1],"categories":[],"categories_nodes":[],"categories_segments":[],"categories_sizes":[],"default_left":[0,0,0,0,0,0,0,0,0,0,0,0,0,0,0,0,0,0,0,0,0,0,0,0,0,0,0,0,0,0,0,0,0,0,0,0,0,0,0,0,0,0,0,0,0,0,0,0,0,0,0,0,0,0,0,0,0],"id":1,"left_children":[1,3,5,7,9,11,13,15,17,19,21,23,25,27,29,-1,-1,-1,31,33,35,37,39,41,43,45,47,49,51,53,55,-1,-1,-1,-1,-1,-1,-1,-1,-1,-1,-1,-1,-1,-1,-1,-1,-1,-1,-1,-1,-1,-1,-1,-1,-1,-1],"loss_changes":[2.1426929E3,2.2871887E2,2.4023999E2,1.7709106E1,8.524979E1,4.0736008E2,1.5371997E2,7.727661E-1,7.5505676E0,8.554779E0,3.778727E1,5.2906387E1,1.33004E2,7.301715E1,3.5302063E1,0E0,0E0,0E0,1.3743134E0,1.0259247E0,3.8092957E0,3.274475E0,1.2539773E1,9.374237E0,3.1455109E1,1.4268344E2,5.605417E1,1.0976637E1,1.5463852E1,9.4298004E1,6.391968E0,0E0,0E0,0E0,0E0,0E0,0E0,0E0,0E0,0E0,0E0,0E0,0E0,0E0,0E0,0E0,0E0,0E0,0E0,0E0,0E0,0E0,0E0,0E0,0E0,0E0,0E0],"parents":[2147483647,0,0,1,1,2,2,3,3,4,4,5,5,6,6,7,7,8,8,9,9,10,10,11,11,12,12,13,13,14,14,18,18,19,19,20,20,21,21,22,22,23,23,24,24,25,25,26,26,27,27,28,28,29,29,30,30],"right_children":[2,4,6,8,10,12,14,16,18,20,22,24,26,28,30,-1,-1,-1,32,34,36,38,40,42,44,46,48,50,52,54,56,-1,-1,-1,-1,-1,-1,-1,-1,-1,-1,-1,-1,-1,-1,-1,-1,-1,-1,-1,-1,-1,-1,-1,-1,-1,-1],"split_conditions":[-2.4638219E-1,-2.8450894E-1,-3.2835793E-1,-3.0131447E-1,3.0756482E-1,-1.12685256E-1,-2.1632394E-1,-3.067703E-1,5.150932E-1,-4.2006293E-1,-2.6682222E-1,-8.46315E-1,-1.2352493E0,7.6374024E-1,4.891781E-1,-1.4740507E-1,-1.3068661E-1,-1.2808032E-1,-2.9182923E-1,-8.3173347E-1,-2.6682222E-1,1.0075498E0,1.0075498E0,-1.2031145E0,-1.9024435E-1,3.1500313E-1,-6.646296E-2,1.5829368E-1,1.2295215E0,-1.6875133E-1,9.7341096E-1,-1.06742345E-1,-8.68377E-2,-1.3140272E-1,-1.04927175E-1,-9.763416E-2,-6.799876E-2,-7.232385E-2,-5.0692555E-2,-3.453652E-2,3.2037538E-3,-1.1701423E-1,-7.307174E-2,-6.0945924E-2,1.1079995E-3,-4.7122505E-2,5.0175752E-2,3.0632628E-2,9.3653135E-2,-3.5401374E-2,6.666069E-3,3.8663577E-2,7.955232E-2,3.7124913E-2,1.1262206E-1,1.0205811E-1,1.277072E-1],"split_indices":[8,8,0,8,0,8,8,8,0,0,8,0,0,0,0,0,0,0,8,0,8,0,0,0,8,8,8,0,0,8,0,0,0,0,0,0,0,0,0,0,0,0,0,0,0,0,0,0,0,0,0,0,0,0,0,0,0],"split_type":[0,0,0,0,0,0,0,0,0,0,0,0,0,0,0,0,0,0,0,0,0,0,0,0,0,0,0,0,0,0,0,0,0,0,0,0,0,0,0,0,0,0,0,0,0,0,0,0,0,0,0,0,0,0,0,0,0],"sum_hessian":[5.599E3,1.844E3,3.755E3,8.28E2,1.016E3,1.968E3,1.787E3,4.22E2,4.06E2,3.43E2,6.73E2,5.65E2,1.403E3,6.49E2,1.138E3,2.65E2,1.57E2,1.69E2,2.37E2,1.4E2,2.03E2,3.14E2,3.59E2,2.34E2,3.31E2,6.58E2,7.45E2,2.72E2,3.77E2,6.67E2,4.71E2,1.32E2,1.05E2,5.4E1,8.6E1,9.5E1,1.08E2,1.37E2,1.77E2,1.52E2,2.07E2,7.8E1,1.56E2,1.44E2,1.87E2,2.32E2,4.26E2,1.91E2,5.54E2,9.4E1,1.78E2,1.82E2,1.95E2,3.11E2,3.56E2,2.62E2,2.09E2],"tree_param":{"num_deleted":"0","num_feature":"17","num_nodes":"57","size_leaf_vector":"1"}},{"base_weights":[6.449823E-3,-7.689003E-1,4.0000972E-1,-1.0770893E0,-4.2691272E-1,1.8098663E-1,6.3801897E-1,-1.2257986E0,-8.7447536E-1,-7.786547E-1,-1.7348619E-1,-4.498162E-1,4.573288E-1,2.079088E-1,7.923679E-1,-1.3246176E-1,-1.1233594E0,-1.0594867E0,-7.299291E-1,-1.0315492E0,-6.3690895E-1,-3.333895E-1,6.262622E-2,-7.8487104E-1,-1.8932119E-1,2.485548E-1,7.986185E-1,-1.7934647E-1,4.4838643E-1,6.586197E-1,9.9959207E-1,-1.2697272E-1,-1.0647599E-1,-1.1945013E-1,-9.644376E-2,-8.0755755E-2,-6.331363E-2,-1.1847305E-1,-9.236981E-2,-7.423932E-2,-5.2967694E-2,-4.37926E-2,-1.7808706E-2,-1.6123222E-2,1.4910663E-2,-1.1009773E-1,-6.527577E-2,-4.585941E-2,1.813197E-2,-4.453015E-2,4.7501728E-2,4.527654E-2,9.385841E-2,-3.7140056E-2,-3.5428107E-3,2.4095625E-2,5.9424836E-2,2.8832419E-2,1.00733414E-1,8.920052E-2,1.1480154E-1],"categories":[],"categories_nodes":[],"categories_segments":[],"categories_sizes":[],"default_left":[0,0,0,0,0,0,0,0,0,0,0,0,0,0,0,0,0,0,0,0,0,0,0,0,0,0,0,0,0,0,0,0,0,0,0,0,0,0,0,0,0,0,0,0,0,0,0,0,0,0,0,0,0,0,0,0,0,0,0,0,0],"id":2,"left_children":[1,3,5,7,9,11,13,15,17,19,21,23,25,27,29,-1,31,33,35,37,39,41,43,45,47,49,51,53,55,57,59,-1,-1,-1,-1,-1,-1,-1,-1,-1,-1,-1,-1,-1,-1,-1,-1,-1,-1,-1,-1,-1,-1,-1,-1,-1,-1,-1,-1,-1,-1],"loss_changes":[1.696618E3,1.9684302E2,1.9213824E2,2.8576538E1,7.911104E1,3.352438E2,1.1714111E2,4.2313843E0,1.0458588E1,1.2677994E1,1.9578047E1,5.099756E1,9.506598E1,4.366349E1,3.5372314E1,0E0,1.0839539E0,1.1835785E0,1.284523E0,1.0864105E0,2.3327866E0,4.938553E0,4.0895085E0,9.972366E0,3.311813E1,1.3078856E2,2.4117676E1,4.9620624E0,8.600845E0,1.02107544E2,7.087921E0,0E0,0E0,0E0,0E0,0E0,0E0,0E0,0E0,0E0,0E0,0E0,0E0,0E0,0E0,0E0,0E0,0E0,0E0,0E0,0E0,0E0,0E0,0E0,0E0,0E0,0E0,0E0,0E0,0E0,0E0],"parents":[2147483647,0,0,1,1,2,2,3,3,4,4,5,5,6,6,7,7,8,8,9,9,10,10,11,11,12,12,13,13,14,14,16,16,17,17,18,18,19,19,20,20,21,21,22,22,23,23,24,24,25,25,26,26,27,27,28,28,29,29,30,30],"right_children":[2,4,6,8,10,12,14,16,18,20,22,24,26,28,30,-1,32,34,36,38,40,42,44,46,48,50,52,54,56,58,60,-1,-1,-1,-1,-1,-1,-1,-1,-1,-1,-1,-1,-1,-1,-1,-1,-1,-1,-1,-1,-1,-1,-1,-1,-1,-1,-1,-1,-1,-1],"split_conditions":[-2.4469551E-1,-2.7802882E-1,-3.7479785E-1,-2.951835E-1,5.000279E-1,-9.883268E-2,-2.2339159E-1,-3.061285E-1,6.175098E-1,-3.7479785E-1,-2.5799522E-1,-8.46315E-1,-1.1087835E0,6.913852E-1,5.4978496E-1,-1.3246176E-1,1.1537822E-1,-2.8454408E-1,-2.8542605E-1,-9.3884933E-1,-2.603389E-1,1.2839087E0,9.7341096E-1,-1.2523879E0,-1.6625288E-1,1.22383595E-1,-5.046039E-2,1.5829368E-1,1.1102428E0,-1.7219408E-1,-2.0064887E-1,-1.2697272E-1,-1.0647599E-1,-1.1945013E-1,-9.644376E-2,-8.0755755E-2,-6.331363E-2,-1.1847305E-1,-9.236981E-2,-7.423932E-2,-5.2967694E-2,-4.37926E-2,-1.7808706E-2,-1.6123222E-2,1.4910663E-2,-1.1009773E-1,-6.527577E-2,-4.585941E-2,1.813197E-2,-4.453015E-2,4.7501728E-2,4.527654E-2,9.385841E-2,-3.7140056E-2,-3.5428107E-3,2.4095625E-2,5.9424836E-2,2.8832419E-2,1.00733414E-1,8.920052E-2,1.1480154E-1],"split_indices":[8,8,0,8,0,8,8,8,0,0,8,0,0,0,0,0,0,0,8,0,8,0,0,0,8,8,8,0,0,8,8,0,0,0,0,0,0,0,0,0,0,0,0,0,0,0,0,0,0,0,0,0,0,0,0,0,0,0,0,0,0],"split_type":[0,0,0,0,0,0,0,0,0,0,0,0,0,0,0,0,0,0,0,0,0,0,0,0,0,0,0,0,0,0,0,0,0,0,0,0,0,0,0,0,0,0,0,0,0,0,0,0,0,0,0,0,0,0,0,0,0,0,0,0,0],"sum_hessian":[5.558E3,1.871E3,3.687E3,9.83E2,8.88E2,1.921E3,1.766E3,5.64E2,4.19E2,3.71E2,5.17E2,5.85E2,1.336E3,4.67E2,1.299E3,2.81E2,2.83E2,1.81E2,2.38E2,1.31E2,2.4E2,3.08E2,2.09E2,2.55E2,3.3E2,8.3E2,5.06E2,1.79E2,2.88E2,7.92E2,5.07E2,7.5E1,2.08E2,7E1,1.11E2,1.28E2,1.1E2,5E1,8.1E1,1.18E2,1.22E2,1.83E2,1.25E2,5.8E1,1.51E2,7.3E1,1.82E2,1.91E2,1.39E2,2.04E2,6.26E2,1.47E2,3.59E2,7.6E1,1.03E2,1.2E2,1.68E2,3.85E2,4.07E2,2.98E2,2.09E2],"tree_param":{"num_deleted":"0","num_feature":"17","num_nodes":"61","size_leaf_vector":"1"}},{"base_weights":[9.791174E-5,-7.970808E-1,3.121319E-1,-1.0741695E0,-5.734877E-1,-1.0178902E-1,4.0607557E-1,-1.1785004E-1,-9.640538E-1,-8.9610934E-1,-4.3209517E-1,-5.62848E-1,1.9700639E-1,1.7024332E-1,6.5935767E-1,-1.1065483E-1,-8.861368E-2,-1.03334986E-1,-8.0018634E-1,-6.2251854E-1,-2.691312E-1,-8.1661683E-1,-3.4814066E-1,1.4101329E-2,3.3342746E-1,-4.2956674E-1,3.9570034E-1,5.6763834E-1,9.447411E-1,-8.809739E-2,-6.907304E-2,-6.9322035E-2,-5.0459266E-2,-4.2268947E-2,-1.12080565E-2,-9.6054375E-2,-6.6711254E-2,-4.2133756E-2,-2.4696557E-2,-7.3666996E-3,1.7188286E-2,2.0907855E-2,5.1211294E-2,-8.273361E-2,-2.3438115E-2,1.43580055E-2,6.2542185E-2,1.1874842E-2,7.897023E-2,8.481811E-2,1.1290405E-1],"categories":[],"categories_nodes":[],"categories_segments":[],"categories_sizes":[],"default_left":[0,0,0,0,0,0,0,0,0,0,0,0,0,0,0,0,0,0,0,0,0,0,0,0,0,0,0,0,0,0,0,0,0,0,0,0,0,0,0,0,0,0,0,0,0,0,0,0,0,0,0],"id":3,"left_children":[1,3,5,7,9,11,13,-1,15,17,19,21,23,25,27,-1,-1,-1,29,31,33,35,37,39,41,43,45,47,49,-1,-1,-1,-1,-1,-1,-1,-1,-1,-1,-1,-1,-1,-1,-1,-1,-1,-1,-1,-1,-1,-1],"loss_changes":[1.3962162E3,9.721118E1,1.5690445E2,6.951721E0,3.9572693E1,1.0301932E2,1.962868E2,0E0,2.8832397E0,2.674881E0,1.879309E1,1.5734596E1,1.1323553E1,2.3060423E2,4.0951416E1,0E0,0E0,0E0,8.151703E-1,1.9930649E0,7.9351616E0,2.2425842E0,1.0882626E0,2.7130656E0,5.669958E0,3.59858E1,7.166992E1,1.19724304E2,5.876007E0,0E0,0E0,0E0,0E0,0E0,0E0,0E0,0E0,0E0,0E0,0E0,0E0,0E0,0E0,0E0,0E0,0E0,0E0,0E0,0E0,0E0,0E0],"parents":[2147483647,0,0,1,1,2,2,3,3,4,4,5,5,6,6,8,8,9,9,10,10,11,11,12,12,13,13,14,14,18,18,19,19,20,20,21,21,22,22,23,23,24,24,25,25,26,26,27,27,28,28],"right_children":[2,4,6,8,10,12,14,-1,16,18,20,22,24,26,28,-1,-1,-1,30,32,34,36,38,40,42,44,46,48,50,-1,-1,-1,-1,-1,-1,-1,-1,-1,-1,-1,-1,-1,-1,-1,-1,-1,-1,-1,-1,-1,-1],"split_conditions":[-2.5585476E-1,-2.9012045E-1,-2.2771369E-1,-3.037248E-1,1.8621291E-1,4.1792876E-1,-5.2323973E-1,-1.1785004E-1,2.4488477E-1,-5.010564E-1,-2.7398524E-1,-3.1280884E-1,1.0495669E0,-8.767555E-2,-1.5581642E-1,-1.1065483E-1,-8.861368E-2,-1.03334986E-1,-2.721129E-1,1.1974559E0,1.0962832E0,-7.303535E-1,1.3161838E-1,-2.3667406E-1,-2.40308E-1,-1.0700835E0,-1.2877706E0,2.933979E-1,-1.0357983E-1,-8.809739E-2,-6.907304E-2,-6.9322035E-2,-5.0459266E-2,-4.2268947E-2,-1.12080565E-2,-9.6054375E-2,-6.6711254E-2,-4.2133756E-2,-2.4696557E-2,-7.3666996E-3,1.7188286E-2,2.0907855E-2,5.1211294E-2,-8.273361E-2,-2.3438115E-2,1.43580055E-2,6.2542185E-2,1.1874842E-2,7.897023E-2,8.481811E-2,1.1290405E-1],"split_indices":[8,8,8,8,0,0,0,0,0,0,8,0,0,8,8,0,0,0,8,0,0,0,0,8,8,0,0,0,8,0,0,0,0,0,0,0,0,0,0,0,0,0,0,0,0,0,0,0,0,0,0],"split_type":[0,0,0,0,0,0,0,0,0,0,0,0,0,0,0,0,0,0,0,0,0,0,0,0,0,0,0,0,0,0,0,0,0,0,0,0,0,0,0,0,0,0,0,0,0,0,0,0,0,0,0],"sum_hessian":[5.611E3,1.578E3,4.033E3,7.03E2,8.75E2,7.46E2,3.287E3,3.56E2,3.47E2,2.65E2,6.1E2,2.93E2,4.53E2,1.703E3,1.584E3,1.18E2,2.29E2,1.05E2,1.6E2,2.8E2,3.3E2,1.33E2,1.6E2,1.94E2,2.59E2,4.65E2,1.238E3,1.201E3,3.83E2,8.8E1,7.2E1,1.72E2,1.08E2,1.66E2,1.64E2,6.5E1,6.8E1,9.1E1,6.9E1,1.25E2,6.9E1,1.54E2,1.05E2,1.52E2,3.13E2,5.91E2,6.47E2,3.98E2,8.03E2,2.55E2,1.28E2],"tree_param":{"num_deleted":"0","num_feature":"17","num_nodes":"51","size_leaf_vector":"1"}},{"base_weights":[-2.829925E-3,-6.7419195E-1,2.9415908E-1,-9.286989E-1,-4.4731945E-1,1.3778614E-1,5.056838E-1,-1.0229881E0,-7.9041296E-1,-7.35004E-1,-2.8986678E-1,-4.0101638E-1,3.3131966E-1,1.7681003E-1,7.1049374E-1,-1.088416E-1,-9.4955367E-1,-9.0587074E-1,-6.723277E-1,-9.26549E-2,-6.5233254E-1,-4.4397807E-1,-1.2731607E-1,-6.9739735E-1,-2.0091504E-1,1.3541074E-1,6.404061E-1,-5.9082992E-2,3.8504335E-1,6.151934E-1,9.214646E-1,-1.0148853E-1,-8.5962355E-2,-1.0007665E-1,-8.381115E-2,-7.255038E-2,-5.924591E-2,-7.590182E-2,-5.8036547E-2,-5.526362E-2,-3.758746E-2,-2.8920878E-2,-1.7725483E-3,-8.887363E-2,-5.694299E-2,-4.119284E-2,5.3792447E-4,-4.5256097E-2,3.6621362E-2,3.213986E-2,7.604575E-2,-2.1169655E-2,5.572069E-3,2.624034E-2,5.5540014E-2,2.876517E-2,8.305728E-2,8.384693E-2,1.0383753E-1],"categories":[],"categories_nodes":[],"categories_segments":[],"categories_sizes":[],"default_left":[0,0,0,0,0,0,0,0,0,0,0,0,0,0,0,0,0,0,0,0,0,0,0,0,0,0,0,0,0,0,0,0,0,0,0,0,0,0,0,0,0,0,0,0,0,0,0,0,0,0,0,0,0,0,0,0,0,0,0],"id":4,"left_children":[1,3,5,7,9,11,13,15,17,19,21,23,25,27,29,-1,31,33,35,-1,37,39,41,43,45,47,49,51,53,55,57,-1,-1,-1,-1,-1,-1,-1,-1,-1,-1,-1,-1,-1,-1,-1,-1,-1,-1,-1,-1,-1,-1,-1,-1,-1,-1,-1,-1],"loss_changes":[1.1227479E3,9.930267E1,1.2906192E2,9.791992E0,4.1233444E1,2.3433752E2,1.1161896E2,1.2727051E0,3.9446716E0,4.510376E0,1.479866E1,3.508779E1,1.0000705E2,3.1361814E1,1.9981018E1,0E0,5.0239563E-1,2.286377E-1,2.8792572E-1,0E0,1.3177185E0,2.0418777E0,5.1400285E0,5.3458786E0,1.5499196E1,1.3763548E2,2.4304138E1,5.267976E0,6.9368324E0,4.96369E1,2.1955261E0,0E0,0E0,0E0,0E0,0E0,0E0,0E0,0E0,0E0,0E0,0E0,0E0,0E0,0E0,0E0,0E0,0E0,0E0,0E0,0E0,0E0,0E0,0E0,0E0,0E0,0E0,0E0,0E0],"parents":[2147483647,0,0,1,1,2,2,3,3,4,4,5,5,6,6,7,7,8,8,9,9,10,10,11,11,12,12,13,13,14,14,16,16,17,17,18,18,20,20,21,21,22,22,23,23,24,24,25,25,26,26,27,27,28,28,29,29,30,30],"right_children":[2,4,6,8,10,12,14,16,18,20,22,24,26,28,30,-1,32,34,36,-1,38,40,42,44,46,48,50,52,54,56,58,-1,-1,-1,-1,-1,-1,-1,-1,-1,-1,-1,-1,-1,-1,-1,-1,-1,-1,-1,-1,-1,-1,-1,-1,-1,-1,-1,-1],"split_conditions":[-2.5101587E-1,-2.8450894E-1,-1.08390294E-1,-2.988314E-1,3.348621E-1,-1.4676952E-1,-2.212736E-1,-3.0774388E-1,6.6609204E-1,-5.830864E-1,-2.6682222E-1,-7.040928E-1,-9.960699E-1,9.176416E-1,8.1322086E-1,-1.088416E-1,9.307719E-1,-3.0002406E-1,1.322816E0,-9.26549E-2,-2.7123916E-1,8.9552736E-1,9.8737055E-1,-1.0993158E0,-2.0064887E-1,6.83931E-2,-1.0357983E-1,4.1792876E-1,-2.337631E-1,-1.9024435E-1,1.2968317E0,-1.0148853E-1,-8.5962355E-2,-1.0007665E-1,-8.381115E-2,-7.255038E-2,-5.924591E-2,-7.590182E-2,-5.8036547E-2,-5.526362E-2,-3.758746E-2,-2.8920878E-2,-1.7725483E-3,-8.887363E-2,-5.694299E-2,-4.119284E-2,5.3792447E-4,-4.5256097E-2,3.6621362E-2,3.213986E-2,7.604575E-2,-2.1169655E-2,5.572069E-3,2.624034E-2,5.5540014E-2,2.876517E-2,8.305728E-2,8.384693E-2,1.0383753E-1],"split_indices":[8,8,0,8,0,8,8,8,0,0,8,0,0,0,0,0,0,0,0,0,8,0,0,0,8,8,8,0,8,8,0,0,0,0,0,0,0,0,0,0,0,0,0,0,0,0,0,0,0,0,0,0,0,0,0,0,0,0,0],"split_type":[0,0,0,0,0,0,0,0,0,0,0,0,0,0,0,0,0,0,0,0,0,0,0,0,0,0,0,0,0,0,0,0,0,0,0,0,0,0,0,0,0,0,0,0,0,0,0,0,0,0,0,0,0,0,0,0,0,0,0],"sum_hessian":[5.629E3,1.726E3,3.903E3,8.12E2,9.14E2,2.245E3,1.658E3,4.79E2,3.33E2,3.22E2,5.92E2,5.93E2,1.652E3,6.37E2,1.021E3,2.46E2,2.33E2,1.65E2,1.68E2,9.4E1,2.28E2,3.03E2,2.89E2,2.38E2,3.55E2,1.012E3,6.4E2,2.99E2,3.38E2,7.06E2,3.15E2,1.29E2,1.04E2,6.3E1,1.02E2,9.6E1,7.2E1,8.8E1,1.4E2,1.14E2,1.89E2,1.16E2,1.73E2,9.3E1,1.45E2,1.75E2,1.8E2,2.85E2,7.27E2,1.76E2,4.64E2,1.28E2,1.71E2,1.98E2,1.4E2,2.81E2,4.25E2,1.89E2,1.26E2],"tree_param":{"num_deleted":"0","num_feature":"17","num_nodes":"59","size_leaf_vector":"1"}},{"base_weights":[5.2110245E-3,-6.180108E-1,2.702671E-1,-8.483073E-1,-4.2638335E-1,-2.0267926E-3,3.512008E-1,-9.337221E-1,-7.486334E-1,-7.196656E-1,-3.664114E-1,-5.492057E-1,1.1778545E-1,1.3833639E-1,5.200164E-1,-9.974831E-2,-8.878647E-2,-8.9263156E-2,-7.014026E-1,-8.428066E-2,-6.4025295E-1,-5.1779824E-1,-2.5990024E-1,-7.6908493E-1,-4.1832992E-1,2.5443625E-2,2.714884E-1,-2.091462E-1,3.0811587E-1,4.2500582E-1,6.016121E-1,-7.624187E-2,-6.520926E-2,-7.4377105E-2,-5.6057006E-2,-5.5248566E-2,-4.455561E-2,-3.3709355E-2,-1.8716624E-2,-7.7450514E-2,-2.2464573E-2,-6.537279E-2,-3.1088311E-2,-1.2595053E-2,5.737372E-3,-3.4892838E-3,3.1239757E-2,-5.509165E-2,3.2978419E-3,-1.1127664E-3,4.8829127E-2,2.9105684E-2,5.727869E-2,5.0543178E-2,7.450273E-2],"categories":[],"categories_nodes":[],"categories_segments":[],"categories_sizes":[],"default_left":[0,0,0,0,0,0,0,0,0,0,0,0,0,0,0,0,0,0,0,0,0,0,0,0,0,0,0,0,0,0,0,0,0,0,0,0,0,0,0,0,0,0,0,0,0,0,0,0,0,0,0,0,0,0,0],"id":5,"left_children":[1,3,5,7,9,11,13,15,17,19,21,23,25,27,29,-1,-1,-1,31,-1,33,35,37,39,41,43,45,47,49,51,53,-1,-1,-1,-1,-1,-1,-1,-1,-1,-1,-1,-1,-1,-1,-1,-1,-1,-1,-1,-1,-1,-1,-1,-1],"loss_changes":[9.3612634E2,7.42641E1,8.76228E1,5.8309326E0,1.6005844E1,5.985425E1,1.1006833E2,3.102417E-1,1.8155365E0,9.859085E-1,1.2281204E1,4.3976784E0,1.0623806E1,8.012122E1,1.2993225E1,0E0,0E0,0E0,3.3021545E-1,0E0,3.996811E-1,5.482025E-1,2.4859257E0,3.0708313E-3,2.452505E0,2.2743864E0,3.532898E0,3.6925117E1,5.2463524E1,1.55308075E1,1.2272308E1,0E0,0E0,0E0,0E0,0E0,0E0,0E0,0E0,0E0,0E0,0E0,0E0,0E0,0E0,0E0,0E0,0E0,0E0,0E0,0E0,0E0,0E0,0E0,0E0],"parents":[2147483647,0,0,1,1,2,2,3,3,4,4,5,5,6,6,7,7,8,8,9,9,10,10,11,11,12,12,13,13,14,14,18,18,20,20,21,21,22,22,23,23,24,24,25,25,26,26,27,27,28,28,29,29,30,30],"right_children":[2,4,6,8,10,12,14,16,18,20,22,24,26,28,30,-1,-1,-1,32,-1,34,36,38,40,42,44,46,48,50,52,54,-1,-1,-1,-1,-1,-1,-1,-1,-1,-1,-1,-1,-1,-1,-1,-1,-1,-1,-1,-1,-1,-1,-1,-1],"split_conditions":[-2.5257534E-1,-2.872355E-1,-2.1985933E-1,-3.0131447E-1,-4.3202388E-1,-4.543032E-1,-5.880116E-1,-3.099303E-1,-3.6988235E-1,-6.2039435E-1,-2.730239E-1,-6.6489434E-1,-2.3208934E-1,-4.4343952E-2,-4.476312E-1,-9.974831E-2,-8.878647E-2,-8.9263156E-2,-2.951835E-1,-8.428066E-2,7.08068E-1,2.4578834E-1,-2.6291865E-1,1.631816E0,4.7692817E-1,-2.7734312E-1,-3.428417E-1,-7.2980034E-1,-8.8331294E-1,3.775848E-1,-1.7219408E-1,-7.624187E-2,-6.520926E-2,-7.4377105E-2,-5.6057006E-2,-5.5248566E-2,-4.455561E-2,-3.3709355E-2,-1.8716624E-2,-7.7450514E-2,-2.2464573E-2,-6.537279E-2,-3.1088311E-2,-1.2595053E-2,5.737372E-3,-3.4892838E-3,3.1239757E-2,-5.509165E-2,3.2978419E-3,-1.1127664E-3,4.8829127E-2,2.9105684E-2,5.727869E-2,5.0543178E-2,7.450273E-2],"split_indices":[8,8,8,8,7,7,7,8,7,7,8,7,8,8,1,0,0,0,8,0,1,1,8,2,1,7,7,7,7,7,8,0,0,0,0,0,0,0,0,0,0,0,0,0,0,0,0,0,0,0,0,0,0,0,0],"split_type":[0,0,0,0,0,0,0,0,0,0,0,0,0,0,0,0,0,0,0,0,0,0,0,0,0,0,0,0,0,0,0,0,0,0,0,0,0,0,0,0,0,0,0,0,0,0,0,0,0,0,0,0,0,0,0],"sum_hessian":[5.665E3,1.69E3,3.975E3,7.66E2,9.24E2,9.11E2,3.064E3,4.08E2,3.58E2,1.55E2,7.69E2,1.63E2,7.48E2,1.356E3,1.708E3,1.62E2,2.46E2,8.4E1,2.74E2,5.7E1,9.8E1,3.16E2,4.53E2,5.9E1,1.04E2,4.68E2,2.8E2,4.45E2,9.11E2,7.92E2,9.16E2,1.16E2,1.58E2,3.9E1,5.9E1,2.09E2,1.07E2,2.18E2,2.35E2,5.8E1,1E0,3.1E1,7.3E1,8.1E1,3.87E2,3.3E1,2.47E2,1.84E2,2.61E2,3.29E2,5.82E2,4.17E2,3.75E2,5.51E2,3.65E2],"tree_param":{"num_deleted":"0","num_feature":"17","num_nodes":"55","size_leaf_vector":"1"}},{"base_weights":[4.417927E-3,-4.8392534E-1,2.7852875E-1,-6.987435E-1,-2.4367058E-1,1.5094844E-1,5.195293E-1,-8.1379753E-1,-5.744597E-1,-4.80899E-1,-2.5599139E-2,-2.8937653E-1,2.9480556E-1,3.137409E-1,6.873302E-1,-8.6366884E-2,-7.433985E-1,-7.055156E-1,-4.6843114E-1,-6.254781E-1,-3.4588152E-1,-1.5890066E-1,9.84657E-2,-5.3986764E-1,-7.864871E-2,1.3102534E-1,5.5646735E-1,1.2275652E-1,6.1016726E-1,6.3483316E-1,9.176003E-2,-8.204583E-2,-6.708356E-2,-7.974715E-2,-6.30768E-2,-5.195163E-2,-3.7403673E-2,-7.6523475E-2,-5.5839907E-2,-4.268418E-2,-2.8367082E-2,-2.2449402E-2,-5.7111853E-3,3.6150494E-4,2.3797086E-2,-7.048641E-2,-4.221786E-2,-2.5585819E-2,1.0478459E-2,-3.847563E-2,3.5112783E-2,2.4248546E-2,6.635494E-2,-1.3175972E-4,2.512963E-2,5.0207008E-2,7.500607E-2,3.793428E-2,7.639737E-2],"categories":[],"categories_nodes":[],"categories_segments":[],"categories_sizes":[],"default_left":[0,0,0,0,0,0,0,0,0,0,0,0,0,0,0,0,0,0,0,0,0,0,0,0,0,0,0,0,0,0,0,0,0,0,0,0,0,0,0,0,0,0,0,0,0,0,0,0,0,0,0,0,0,0,0,0,0,0,0],"id":6,"left_children":[1,3,5,7,9,11,13,15,17,19,21,23,25,27,29,-1,31,33,35,37,39,41,43,45,47,49,51,53,55,57,-1,-1,-1,-1,-1,-1,-1,-1,-1,-1,-1,-1,-1,-1,-1,-1,-1,-1,-1,-1,-1,-1,-1,-1,-1,-1,-1,-1,-1],"loss_changes":[7.465391E2,1.0331E2,1.0974957E2,1.4661255E1,4.9030334E1,1.4811995E2,4.246524E1,1.2784119E0,6.784088E0,8.646057E0,8.201971E0,3.0361954E1,7.543764E1,3.1458435E1,7.637665E0,0E0,7.5805664E-1,1.0572586E0,1.1848145E0,1.6163864E0,1.0725918E0,1.5829029E0,3.3998039E0,4.8094254E0,1.0233731E1,1.23309525E2,2.2634705E1,5.4228063E0,2.9200363E0,1.8087936E1,0E0,0E0,0E0,0E0,0E0,0E0,0E0,0E0,0E0,0E0,0E0,0E0,0E0,0E0,0E0,0E0,0E0,0E0,0E0,0E0,0E0,0E0,0E0,0E0,0E0,0E0,0E0,0E0,0E0],"parents":[2147483647,0,0,1,1,2,2,3,3,4,4,5,5,6,6,7,7,8,8,9,9,10,10,11,11,12,12,13,13,14,14,16,16,17,17,18,18,19,19,20,20,21,21,22,22,23,23,24,24,25,25,26,26,27,27,28,28,29,29],"right_children":[2,4,6,8,10,12,14,16,18,20,22,24,26,28,30,-1,32,34,36,38,40,42,44,46,48,50,52,54,56,58,-1,-1,-1,-1,-1,-1,-1,-1,-1,-1,-1,-1,-1,-1,-1,-1,-1,-1,-1,-1,-1,-1,-1,-1,-1,-1,-1,-1,-1],"split_conditions":[-2.40308E-1,-2.7560622E-1,7.626365E-2,-2.9592612E-1,6.6609204E-1,-1.5399343E-1,-2.1216178E-1,-3.0454865E-1,6.051397E-1,-5.5799857E-2,-2.5799522E-1,-5.103858E-1,-9.3884933E-1,1.187159E0,1.0358837E0,-8.6366884E-2,6.913852E-1,-2.0652226E-1,-2.8290612E-1,-7.5198394E-1,-2.61208E-1,1.349906E0,1.3787236E0,-9.6697587E-1,-1.9801375E-1,6.83931E-2,-1.191551E-1,6.6609204E-1,-2.222408E-1,-1.935557E-1,9.176003E-2,-8.204583E-2,-6.708356E-2,-7.974715E-2,-6.30768E-2,-5.195163E-2,-3.7403673E-2,-7.6523475E-2,-5.5839907E-2,-4.268418E-2,-2.8367082E-2,-2.2449402E-2,-5.7111853E-3,3.6150494E-4,2.3797086E-2,-7.048641E-2,-4.221786E-2,-2.5585819E-2,1.0478459E-2,-3.847563E-2,3.5112783E-2,2.4248546E-2,6.635494E-2,-1.3175972E-4,2.512963E-2,5.0207008E-2,7.500607E-2,3.793428E-2,7.639737E-2],"split_indices":[8,8,0,8,0,8,8,8,0,0,8,0,0,0,0,0,0,0,8,0,8,0,0,0,8,8,8,0,8,8,0,0,0,0,0,0,0,0,0,0,0,0,0,0,0,0,0,0,0,0,0,0,0,0,0,0,0,0,0],"split_type":[0,0,0,0,0,0,0,0,0,0,0,0,0,0,0,0,0,0,0,0,0,0,0,0,0,0,0,0,0,0,0,0,0,0,0,0,0,0,0,0,0,0,0,0,0,0,0,0,0,0,0,0,0,0,0,0,0,0,0],"sum_hessian":[5.575E3,2.004E3,3.571E3,1.057E3,9.47E2,2.336E3,1.235E3,5.46E2,5.11E2,4.53E2,4.94E2,5.75E2,1.761E3,5.56E2,6.79E2,3.13E2,2.33E2,2.26E2,2.85E2,2.17E2,2.36E2,2.38E2,2.56E2,2.62E2,3.13E2,1.084E3,6.77E2,3.39E2,2.17E2,5.56E2,1.23E2,1.08E2,1.25E2,9.7E1,1.29E2,1.82E2,1.03E2,6.7E1,1.5E2,1E2,1.36E2,1.44E2,9.4E1,1.53E2,1.03E2,1.07E2,1.55E2,1.59E2,1.54E2,3.24E2,7.6E2,1.73E2,5.04E2,1.73E2,1.66E2,1.25E2,9.2E1,1.88E2,3.68E2],"tree_param":{"num_deleted":"0","num_feature":"17","num_nodes":"59","size_leaf_vector":"1"}},{"base_weights":[4.198514E-3,-4.7757143E-1,2.3202275E-1,-6.531758E-1,-2.8488657E-1,8.317743E-2,3.7678826E-1,-7.401225E-1,-5.509815E-1,-5.080338E-1,-1.3896321E-1,-3.1318623E-1,2.7880502E-1,2.1039349E-1,5.9446555E-1,-8.002428E-2,-6.894293E-1,-6.385664E-1,-4.3361282E-1,-6.072179E-1,-3.980218E-1,-2.6449805E-1,-3.0177996E-2,-5.068301E-1,-1.1731152E-1,3.1062683E-2,4.8580718E-1,-2.5364334E-2,4.5441693E-1,5.3966004E-1,8.2607126E-1,-7.803872E-2,-6.420277E-2,-7.7527724E-2,-5.989471E-2,-4.868506E-2,-3.7045386E-2,-7.1788386E-2,-5.5497047E-2,-4.7077846E-2,-3.386902E-2,-3.407489E-2,-1.8857125E-2,-1.4436543E-2,6.993455E-3,-8.12803E-2,-4.3342467E-2,-3.5463076E-2,1.0191113E-2,-4.841416E-2,2.8858477E-2,3.3294305E-2,7.7175945E-2,-2.1437937E-2,9.400068E-3,2.875857E-2,6.1478943E-2,3.0118713E-2,7.000401E-2,7.635074E-2,9.413288E-2],"categories":[],"categories_nodes":[],"categories_segments":[],"categories_sizes":[],"default_left":[0,0,0,0,0,0,0,0,0,0,0,0,0,0,0,0,0,0,0,0,0,0,0,0,0,0,0,0,0,0,0,0,0,0,0,0,0,0,0,0,0,0,0,0,0,0,0,0,0,0,0,0,0,0,0,0,0,0,0,0,0],"id":7,"left_children":[1,3,5,7,9,11,13,15,17,19,21,23,25,27,29,-1,31,33,35,37,39,41,43,45,47,49,51,53,55,57,59,-1,-1,-1,-1,-1,-1,-1,-1,-1,-1,-1,-1,-1,-1,-1,-1,-1,-1,-1,-1,-1,-1,-1,-1,-1,-1,-1,-1,-1,-1],"loss_changes":[6.232119E2,6.1497498E1,8.303493E1,8.060059E0,2.8291245E1,1.4756776E2,7.0649506E1,1.0086975E0,4.266754E0,3.5118484E0,7.2025614E0,2.3798477E1,6.531971E1,6.3812786E1,1.0292694E1,0E0,7.2776794E-1,8.9515686E-1,4.6523285E-1,6.365738E-1,5.5713654E-1,1.3541698E0,3.2566693E0,6.7450943E0,1.6372225E1,7.7224754E1,3.0079071E1,1.276756E1,1.4404739E1,2.6064392E1,4.350357E-1,0E0,0E0,0E0,0E0,0E0,0E0,0E0,0E0,0E0,0E0,0E0,0E0,0E0,0E0,0E0,0E0,0E0,0E0,0E0,0E0,0E0,0E0,0E0,0E0,0E0,0E0,0E0,0E0,0E0,0E0],"parents":[2147483647,0,0,1,1,2,2,3,3,4,4,5,5,6,6,7,7,8,8,9,9,10,10,11,11,12,12,13,13,14,14,16,16,17,17,18,18,19,19,20,20,21,21,22,22,23,23,24,24,25,25,26,26,27,27,28,28,29,29,30,30],"right_children":[2,4,6,8,10,12,14,16,18,20,22,24,26,28,30,-1,32,34,36,38,40,42,44,46,48,50,52,54,56,58,60,-1,-1,-1,-1,-1,-1,-1,-1,-1,-1,-1,-1,-1,-1,-1,-1,-1,-1,-1,-1,-1,-1,-1,-1,-1,-1,-1,-1,-1,-1],"split_conditions":[-2.4805328E-1,-2.8052974E-1,-4.3395346E-1,-2.9785466E-1,4.3085176E-1,-7.82834E-2,-1.9872427E-1,-3.0850497E-1,8.715472E-1,-1.2311009E-1,-2.6529104E-1,-8.219202E-1,-1.3013847E0,8.4549385E-1,-1.2128546E-1,-8.002428E-2,3.348621E-1,-5.4908574E-1,-2.8810674E-1,-8.3173347E-1,-2.6529104E-1,1.1489427E0,1.1740978E0,-1.3284746E0,-1.6625288E-1,3.7823048E-1,8.888204E-2,1.8621291E-1,-2.2555497E-1,1.7266794E-1,-8.767555E-2,-7.803872E-2,-6.420277E-2,-7.7527724E-2,-5.989471E-2,-4.868506E-2,-3.7045386E-2,-7.1788386E-2,-5.5497047E-2,-4.7077846E-2,-3.386902E-2,-3.407489E-2,-1.8857125E-2,-1.4436543E-2,6.993455E-3,-8.12803E-2,-4.3342467E-2,-3.5463076E-2,1.0191113E-2,-4.841416E-2,2.8858477E-2,3.3294305E-2,7.7175945E-2,-2.1437937E-2,9.400068E-3,2.875857E-2,6.1478943E-2,3.0118713E-2,7.000401E-2,7.635074E-2,9.413288E-2],"split_indices":[8,8,0,8,0,8,8,8,0,0,8,0,0,0,8,0,0,0,8,0,8,0,0,0,8,8,8,0,8,0,8,0,0,0,0,0,0,0,0,0,0,0,0,0,0,0,0,0,0,0,0,0,0,0,0,0,0,0,0,0,0],"split_type":[0,0,0,0,0,0,0,0,0,0,0,0,0,0,0,0,0,0,0,0,0,0,0,0,0,0,0,0,0,0,0,0,0,0,0,0,0,0,0,0,0,0,0,0,0,0,0,0,0,0,0,0,0,0,0,0,0,0,0,0,0],"sum_hessian":[5.676E3,1.822E3,3.854E3,9.52E2,8.7E2,1.901E3,1.953E3,5.11E2,4.41E2,3.43E2,5.27E2,6.28E2,1.273E3,1.108E3,8.45E2,2.27E2,2.84E2,2.5E2,1.91E2,1.78E2,1.65E2,2.44E2,2.83E2,3.15E2,3.13E2,5.8E2,6.93E2,5.64E2,5.44E2,6.86E2,1.59E2,9.2E1,1.92E2,5.2E1,1.98E2,1E2,9.1E1,5.3E1,1.25E2,7.1E1,9.4E1,1.2E2,1.24E2,1.32E2,1.51E2,5.9E1,2.56E2,1.5E2,1.63E2,1.93E2,3.87E2,4.53E2,2.4E2,2.18E2,3.46E2,2.68E2,2.76E2,2.77E2,4.09E2,1.08E2,5.1E1],"tree_param":{"num_deleted":"0","num_feature":"17","num_nodes":"61","size_leaf_vector":"1"}},{"base_weights":[-4.946567E-3,-4.4286078E-1,1.9435455E-1,-5.928489E-1,-2.6489863E-1,9.6221745E-2,3.8137075E-1,-6.7079425E-1,-4.9963447E-1,-4.200982E-1,-1.0552397E-1,-2.5033706E-1,2.3083614E-1,2.0776169E-1,5.5677205E-1,-7.531815E-2,-6.389418E-1,-5.7511747E-1,-4.0212166E-1,-5.364389E-1,-3.177763E-1,-1.9231759E-1,1.948837E-2,-4.677673E-1,-1.13619655E-1,9.5355965E-2,5.0729173E-1,7.177061E-2,4.1173416E-1,4.973581E-1,7.2474897E-1,-6.990396E-2,-5.8137126E-2,-6.450654E-2,-5.3005006E-2,-4.401234E-2,-3.492808E-2,-6.753439E-2,-4.9818344E-2,-3.8267106E-2,-2.7614096E-2,-2.2407055E-2,-8.43248E-3,-4.0783137E-3,1.1429984E-2,-5.5179633E-2,-3.2591444E-2,-2.3220312E-2,3.9705727E-3,-3.153797E-2,2.4669385E-2,2.3917397E-2,5.900785E-2,-4.259335E-3,1.3439476E-2,2.2094447E-2,5.042959E-2,3.4683645E-2,6.730977E-2,6.6696964E-2,8.056897E-2],"categories":[],"categories_nodes":[],"categories_segments":[],"categories_sizes":[],"default_left":[0,0,0,0,0,0,0,0,0,0,0,0,0,0,0,0,0,0,0,0,0,0,0,0,0,0,0,0,0,0,0,0,0,0,0,0,0,0,0,0,0,0,0,0,0,0,0,0,0,0,0,0,0,0,0,0,0,0,0,0,0],"id":8,"left_children":[1,3,5,7,9,11,13,15,17,19,21,23,25,27,29,-1,31,33,35,37,39,41,43,45,47,49,51,53,55,57,59,-1,-1,-1,-1,-1,-1,-1,-1,-1,-1,-1,-1,-1,-1,-1,-1,-1,-1,-1,-1,-1,-1,-1,-1,-1,-1,-1,-1,-1,-1],"loss_changes":[4.8944702E2,4.6661102E1,7.069353E1,6.574463E0,1.9842514E1,1.180402E2,4.026271E1,8.7023926E-1,2.9852982E0,4.6745453E0,4.3221564E0,2.0993217E1,6.819326E1,1.8499723E1,6.2164764E0,0E0,9.014282E-1,4.2726135E-1,2.3583603E-1,6.678772E-1,4.8604774E-1,7.869415E-1,9.4182813E-1,3.074253E0,7.9365067E0,7.6161476E1,1.3154648E1,2.8848257E0,4.603752E0,1.2728325E1,2.5766754E-1,0E0,0E0,0E0,0E0,0E0,0E0,0E0,0E0,0E0,0E0,0E0,0E0,0E0,0E0,0E0,0E0,0E0,0E0,0E0,0E0,0E0,0E0,0E0,0E0,0E0,0E0,0E0,0E0,0E0,0E0],"parents":[2147483647,0,0,1,1,2,2,3,3,4,4,5,5,6,6,7,7,8,8,9,9,10,10,11,11,12,12,13,13,14,14,16,16,17,17,18,18,19,19,20,20,21,21,22,22,23,23,24,24,25,25,26,26,27,27,28,28,29,29,30,30],"right_children":[2,4,6,8,10,12,14,16,18,20,22,24,26,28,30,-1,32,34,36,38,40,42,44,46,48,50,52,54,56,58,60,-1,-1,-1,-1,-1,-1,-1,-1,-1,-1,-1,-1,-1,-1,-1,-1,-1,-1,-1,-1,-1,-1,-1,-1,-1,-1,-1,-1,-1,-1],"split_conditions":[-2.503807E-1,-2.8052974E-1,1.8621291E-1,-2.9785466E-1,7.747283E-1,-1.598804E-1,-2.1450981E-1,-3.1169957E-1,8.1322086E-1,-1.9864207E-2,-2.6291865E-1,-5.364392E-1,-8.082371E-1,1.1974559E0,9.987732E-1,-7.531815E-2,6.051397E-1,-9.9613704E-2,-2.8810674E-1,-9.960699E-1,-2.682653E-1,1.4708432E0,1.4557089E0,-1.9234195E-1,-2.0165549E-1,1.8489318E-2,-1.3294289E-1,6.175098E-1,-2.3844932E-1,-1.8390085E-1,-2.0064887E-1,-6.990396E-2,-5.8137126E-2,-6.450654E-2,-5.3005006E-2,-4.401234E-2,-3.492808E-2,-6.753439E-2,-4.9818344E-2,-3.8267106E-2,-2.7614096E-2,-2.2407055E-2,-8.43248E-3,-4.0783137E-3,1.1429984E-2,-5.5179633E-2,-3.2591444E-2,-2.3220312E-2,3.9705727E-3,-3.153797E-2,2.4669385E-2,2.3917397E-2,5.900785E-2,-4.259335E-3,1.3439476E-2,2.2094447E-2,5.042959E-2,3.4683645E-2,6.730977E-2,6.6696964E-2,8.056897E-2],"split_indices":[8,8,0,8,0,8,8,8,0,0,8,0,0,0,0,0,0,0,8,0,8,0,0,8,8,8,8,0,8,8,8,0,0,0,0,0,0,0,0,0,0,0,0,0,0,0,0,0,0,0,0,0,0,0,0,0,0,0,0,0,0],"split_type":[0,0,0,0,0,0,0,0,0,0,0,0,0,0,0,0,0,0,0,0,0,0,0,0,0,0,0,0,0,0,0,0,0,0,0,0,0,0,0,0,0,0,0,0,0,0,0,0,0,0,0,0,0,0,0,0,0,0,0,0,0],"sum_hessian":[5.606E3,1.753E3,3.853E3,9.5E2,8.03E2,2.528E3,1.325E3,5.14E2,4.36E2,4.06E2,3.97E2,7.07E2,1.821E3,6.67E2,6.58E2,1.37E2,3.77E2,2.43E2,1.93E2,1.88E2,2.18E2,2.34E2,1.63E2,2.72E2,4.35E2,1.223E3,5.98E2,4.01E2,2.66E2,4.89E2,1.69E2,1.79E2,1.98E2,9E1,1.53E2,1.08E2,8.5E1,3.7E1,1.51E2,8.2E1,1.36E2,1.8E2,5.4E1,1E2,6.3E1,1.69E2,1.03E2,2.45E2,1.9E2,3.29E2,8.94E2,1.42E2,4.56E2,1.42E2,2.59E2,8.8E1,1.78E2,2.65E2,2.24E2,1.04E2,6.5E1],"tree_param":{"num_deleted":"0","num_feature":"17","num_nodes":"61","size_leaf_vector":"1"}},{"base_weights":[-3.64596E-3,-4.1667724E-1,1.658384E-1,-5.708444E-1,-2.9758263E-1,-7.049755E-2,2.1067333E-1,-6.298205E-1,-5.2058107E-1,-4.3825838E-1,-2.4472639E-1,-3.5596362E-1,7.6026185E-3,4.5333635E-2,3.0476484E-1,-6.775765E-2,-5.9590694E-2,-6.4521715E-2,-4.9489808E-1,-5.23321E-1,-3.6987752E-1,-3.3057883E-1,-1.5175918E-1,-5.1278156E-1,-2.7794263E-1,-3.5830267E-2,1.057737E-1,-2.941231E-1,1.6823548E-1,2.1761128E-1,3.7994364E-1,-5.1671952E-2,-4.4797618E-2,-5.799663E-2,-4.7762837E-2,-4.3501496E-2,-2.7360607E-2,-3.524406E-2,-2.5878966E-2,-2.0176025E-2,-6.840981E-3,-6.0796708E-2,-4.303327E-2,-4.130663E-2,-1.9674018E-2,-2.6211178E-2,6.913961E-4,-4.574567E-4,1.7701533E-2,-6.124248E-2,-2.0327574E-2,-1.4139675E-2,2.9368136E-2,-6.2895217E-3,2.855208E-2,3.122725E-2,4.7022555E-2],"categories":[],"categories_nodes":[],"categories_segments":[],"categories_sizes":[],"default_left":[0,0,0,0,0,0,0,0,0,0,0,0,0,0,0,0,0,0,0,0,0,0,0,0,0,0,0,0,0,0,0,0,0,0,0,0,0,0,0,0,0,0,0,0,0,0,0,0,0,0,0,0,0,0,0,0,0],"id":9,"left_children":[1,3,5,7,9,11,13,15,17,19,21,23,25,27,29,-1,-1,-1,31,33,35,37,39,41,43,45,47,49,51,53,55,-1,-1,-1,-1,-1,-1,-1,-1,-1,-1,-1,-1,-1,-1,-1,-1,-1,-1,-1,-1,-1,-1,-1,-1,-1,-1],"loss_changes":[3.9145224E2,2.9702606E1,4.2028404E1,1.770874E0,6.73349E0,1.4115409E1,5.183789E1,1.16119385E-1,9.226837E-1,1.260601E0,5.3053894E0,1.5214462E0,2.127189E0,5.0530514E1,1.3833984E1,0E0,0E0,0E0,1.0231781E-1,5.1136017E-3,7.714424E-1,4.5495605E-1,1.3364863E0,8.368111E-2,9.3916416E-1,3.3484035E0,1.2036024E0,9.186741E0,3.457214E1,1.8800331E1,6.8118744E0,0E0,0E0,0E0,0E0,0E0,0E0,0E0,0E0,0E0,0E0,0E0,0E0,0E0,0E0,0E0,0E0,0E0,0E0,0E0,0E0,0E0,0E0,0E0,0E0,0E0,0E0],"parents":[2147483647,0,0,1,1,2,2,3,3,4,4,5,5,6,6,7,7,8,8,9,9,10,10,11,11,12,12,13,13,14,14,18,18,19,19,20,20,21,21,22,22,23,23,24,24,25,25,26,26,27,27,28,28,29,29,30,30],"right_children":[2,4,6,8,10,12,14,16,18,20,22,24,26,28,30,-1,-1,-1,32,34,36,38,40,42,44,46,48,50,52,54,56,-1,-1,-1,-1,-1,-1,-1,-1,-1,-1,-1,-1,-1,-1,-1,-1,-1,-1,-1,-1,-1,-1,-1,-1,-1,-1],"split_conditions":[-2.5475144E-1,-2.891128E-1,-2.3067847E-1,-3.0454865E-1,-3.048939E-1,-4.045327E-1,-6.4930004E-1,-3.1169957E-1,-4.9417186E-1,-5.2580124E-1,-2.7123916E-1,-6.3563746E-1,4.7692817E-1,-6.646296E-2,-1.8635568E-1,-6.775765E-2,-5.9590694E-2,-6.4521715E-2,-2.9439846E-1,-7.113422E-1,1.1703477E0,4.7692817E-1,1.4648488E-2,-7.587294E-1,7.08068E-1,-4.5009103E-2,-2.5201994E-1,-8.356168E-1,-9.055172E-1,-3.7494215E-1,-2.1649136E-1,-5.1671952E-2,-4.4797618E-2,-5.799663E-2,-4.7762837E-2,-4.3501496E-2,-2.7360607E-2,-3.524406E-2,-2.5878966E-2,-2.0176025E-2,-6.840981E-3,-6.0796708E-2,-4.303327E-2,-4.130663E-2,-1.9674018E-2,-2.6211178E-2,6.913961E-4,-4.574567E-4,1.7701533E-2,-6.124248E-2,-2.0327574E-2,-1.4139675E-2,2.9368136E-2,-6.2895217E-3,2.855208E-2,3.122725E-2,4.7022555E-2],"split_indices":[8,8,8,8,7,7,7,8,7,7,8,7,1,8,8,0,0,0,8,7,1,1,1,7,1,7,7,7,7,7,1,0,0,0,0,0,0,0,0,0,0,0,0,0,0,0,0,0,0,0,0,0,0,0,0,0,0],"split_type":[0,0,0,0,0,0,0,0,0,0,0,0,0,0,0,0,0,0,0,0,0,0,0,0,0,0,0,0,0,0,0,0,0,0,0,0,0,0,0,0,0,0,0,0,0,0,0,0,0,0,0,0,0,0,0,0,0],"sum_hessian":[5.59E3,1.626E3,3.964E3,7.07E2,9.19E2,6.32E2,3.332E3,3.2E2,3.87E2,2.49E2,6.7E2,1.35E2,4.97E2,1.209E3,2.123E3,1.25E2,1.95E2,6.2E1,3.25E2,1.08E2,1.41E2,3.47E2,3.23E2,4.3E1,9.2E1,3.45E2,1.52E2,3.21E2,8.88E2,9.85E2,1.138E3,2.15E2,1.1E2,4.3E1,6.5E1,8.2E1,5.9E1,2.63E2,8.4E1,2.01E2,1.22E2,1.7E1,2.6E1,3.3E1,5.9E1,5.4E1,2.91E2,6E1,9.2E1,7E1,2.51E2,2.56E2,6.32E2,1.92E2,7.93E2,6.53E2,4.85E2],"tree_param":{"num_deleted":"0","num_feature":"17","num_nodes":"57","size_leaf_vector":"1"}},{"base_weights":[-5.237918E-4,-3.2957694E-1,1.8501608E-1,-4.621299E-1,-1.6513409E-1,1.1145322E-1,3.9346924E-1,-5.372481E-1,-3.7763584E-1,-3.378774E-1,-2.5506487E-2,-1.9822006E-1,2.0327151E-1,2.2255006E-1,4.9581525E-1,-5.853799E-2,-4.8679775E-1,-4.7320184E-1,-2.9871994E-1,-4.3879342E-1,-2.5316787E-1,-8.7374516E-2,9.7644866E-2,-4.244044E-1,-8.010864E-2,2.1359233E-2,3.2566926E-1,1.2181299E-1,4.2644778E-1,4.2181876E-1,5.8703935E-1,-5.66065E-2,-4.5130234E-2,-5.4958183E-2,-4.204231E-2,-3.3923894E-2,-2.2720862E-2,-5.0969344E-2,-3.9243784E-2,-3.2117195E-2,-2.2599861E-2,-1.6484654E-2,-2.7791269E-3,-2.0782836E-3,1.7838353E-2,-5.1174518E-2,-3.1089976E-2,-1.8313738E-2,8.387604E-5,-4.0643726E-2,2.606908E-2,2.4872398E-2,5.574587E-2,1.7571014E-3,1.6719392E-2,3.3577975E-2,4.94869E-2,2.6224146E-2,6.005419E-2,5.428939E-2,7.0790574E-2],"categories":[],"categories_nodes":[],"categories_segments":[],"categories_sizes":[],"default_left":[0,0,0,0,0,0,0,0,0,0,0,0,0,0,0,0,0,0,0,0,0,0,0,0,0,0,0,0,0,0,0,0,0,0,0,0,0,0,0,0,0,0,0,0,0,0,0,0,0,0,0,0,0,0,0,0,0,0,0,0,0],"id":10,"left_children":[1,3,5,7,9,11,13,15,17,19,21,23,25,27,29,-1,31,33,35,37,39,41,43,45,47,49,51,53,55,57,59,-1,-1,-1,-1,-1,-1,-1,-1,-1,-1,-1,-1,-1,-1,-1,-1,-1,-1,-1,-1,-1,-1,-1,-1,-1,-1,-1,-1,-1,-1],"loss_changes":[3.4238223E2,4.3998E1,5.494535E1,6.89946E0,2.1795616E1,7.544638E1,1.6245514E1,1.1477203E0,3.8557358E0,3.3425255E0,3.8257165E0,1.6181978E1,4.5548576E1,7.178154E0,3.694519E0,0E0,5.7173157E-1,7.283783E-1,7.719078E-1,4.0142822E-1,3.375883E-1,1.5371742E0,1.610072E0,1.9029236E0,3.336117E0,8.447135E1,2.167366E1,1.1182141E0,5.5345345E-1,9.140083E0,9.976196E-1,0E0,0E0,0E0,0E0,0E0,0E0,0E0,0E0,0E0,0E0,0E0,0E0,0E0,0E0,0E0,0E0,0E0,0E0,0E0,0E0,0E0,0E0,0E0,0E0,0E0,0E0,0E0,0E0,0E0,0E0],"parents":[2147483647,0,0,1,1,2,2,3,3,4,4,5,5,6,6,7,7,8,8,9,9,10,10,11,11,12,12,13,13,14,14,16,16,17,17,18,18,19,19,20,20,21,21,22,22,23,23,24,24,25,25,26,26,27,27,28,28,29,29,30,30],"right_children":[2,4,6,8,10,12,14,16,18,20,22,24,26,28,30,-1,32,34,36,38,40,42,44,46,48,50,52,54,56,58,60,-1,-1,-1,-1,-1,-1,-1,-1,-1,-1,-1,-1,-1,-1,-1,-1,-1,-1,-1,-1,-1,-1,-1,-1,-1,-1,-1,-1,-1,-1],"split_conditions":[-2.409768E-1,-2.746707E-1,3.9222094E-1,-2.951835E-1,5.645738E-1,-1.8090247E-1,-2.1985933E-1,6.8212485E-1,6.051397E-1,-1.3665506E-1,1.4084396E0,-4.8329586E-1,-1.1443045E0,1.322816E0,-1.9801375E-1,-5.853799E-2,-3.099303E-1,-2.52202E-1,1.3657315E0,-7.5198394E-1,7.626365E-2,-2.603389E-1,-2.5963646E-1,-7.7741534E-1,-3.9004865E-3,2.0577425E-1,-1.816304E-2,7.379633E-1,1.5095432E0,1.1369182E0,8.715472E-1,-5.66065E-2,-4.5130234E-2,-5.4958183E-2,-4.204231E-2,-3.3923894E-2,-2.2720862E-2,-5.0969344E-2,-3.9243784E-2,-3.2117195E-2,-2.2599861E-2,-1.6484654E-2,-2.7791269E-3,-2.0782836E-3,1.7838353E-2,-5.1174518E-2,-3.1089976E-2,-1.8313738E-2,8.387604E-5,-4.0643726E-2,2.606908E-2,2.4872398E-2,5.574587E-2,1.7571014E-3,1.6719392E-2,3.3577975E-2,4.94869E-2,2.6224146E-2,6.005419E-2,5.428939E-2,7.0790574E-2],"split_indices":[8,8,0,8,0,8,8,0,0,0,0,0,0,0,8,0,8,0,0,0,0,8,8,0,0,8,8,0,0,0,0,0,0,0,0,0,0,0,0,0,0,0,0,0,0,0,0,0,0,0,0,0,0,0,0,0,0,0,0,0,0],"split_type":[0,0,0,0,0,0,0,0,0,0,0,0,0,0,0,0,0,0,0,0,0,0,0,0,0,0,0,0,0,0,0,0,0,0,0,0,0,0,0,0,0,0,0,0,0,0,0,0,0,0,0,0,0,0,0,0,0,0,0,0,0],"sum_hessian":[5.606E3,2.021E3,3.585E3,1.118E3,9.03E2,2.651E3,9.34E2,5.89E2,5.29E2,4.03E2,5E2,6.06E2,2.045E3,3.51E2,5.83E2,2.96E2,2.93E2,2.37E2,2.92E2,1.82E2,2.21E2,3.33E2,1.67E2,2.07E2,3.99E2,8.23E2,1.222E3,2.36E2,1.15E2,3.25E2,2.58E2,8.6E1,2.07E2,9.3E1,1.44E2,1.84E2,1.08E2,6.8E1,1.14E2,6E1,1.61E2,1.44E2,1.89E2,6.8E1,9.9E1,1.15E2,9.2E1,1.75E2,2.24E2,2.95E2,5.28E2,9.19E2,3.03E2,7.2E1,1.64E2,5.2E1,6.3E1,1.73E2,1.52E2,1.93E2,6.5E1],"tree_param":{"num_deleted":"0","num_feature":"17","num_nodes":"61","size_leaf_vector":"1"}},{"base_weights":[1.6799811E-3,-2.929664E-1,1.650099E-1,-4.1480297E-1,-1.525338E-1,6.280238E-2,3.0549562E-1,-4.69171E-1,-3.228873E-1,-2.8880632E-1,-6.254061E-3,-2.3407891E-1,1.8322518E-1,1.9886698E-1,4.3951464E-1,-5.334831E-2,-4.326738E-1,-3.984629E-1,-2.4300909E-1,-3.8127285E-1,-2.0253235E-1,-9.352685E-2,5.5918433E-2,-3.7197387E-1,-1.1253605E-1,-6.466248E-2,3.1331825E-1,4.8642192E-2,3.908471E-1,3.906769E-1,6.4881957E-1,-4.867124E-2,-3.8570207E-2,-4.5010597E-2,-3.386218E-2,-2.797885E-2,-1.8526211E-2,-5.0269257E-2,-3.485417E-2,-2.5281852E-2,-1.6049756E-2,-1.227961E-2,2.2131465E-4,-5.2867626E-4,1.5317852E-2,-5.8535006E-2,-3.291702E-2,-1.8282155E-2,1.1438674E-2,-6.520572E-2,1.9311862E-2,2.1164356E-2,6.3750714E-2,-7.720115E-3,1.2027531E-2,2.60525E-2,4.8858922E-2,1.8545149E-2,4.9965065E-2,6.0077675E-2,7.275819E-2],"categories":[],"categories_nodes":[],"categories_segments":[],"categories_sizes":[],"default_left":[0,0,0,0,0,0,0,0,0,0,0,0,0,0,0,0,0,0,0,0,0,0,0,0,0,0,0,0,0,0,0,0,0,0,0,0,0,0,0,0,0,0,0,0,0,0,0,0,0,0,0,0,0,0,0,0,0,0,0,0,0],"id":11,"left_children":[1,3,5,7,9,11,13,15,17,19,21,23,25,27,29,-1,31,33,35,37,39,41,43,45,47,49,51,53,55,57,59,-1,-1,-1,-1,-1,-1,-1,-1,-1,-1,-1,-1,-1,-1,-1,-1,-1,-1,-1,-1,-1,-1,-1,-1,-1,-1,-1,-1,-1,-1],"loss_changes":[2.7055655E2,3.424193E1,5.1916206E1,5.2105865E0,1.859653E1,7.494182E1,2.1676666E1,1.3465118E0,2.3299828E0,3.7758904E0,2.452341E0,1.009803E1,4.810273E1,2.4495136E1,6.636154E0,0E0,9.13887E-1,4.8110962E-1,3.6869812E-1,7.468071E-1,4.9209404E-1,5.270922E-1,1.5723552E0,2.3920364E0,5.172562E0,7.795543E1,3.2101723E1,4.31824E0,4.62397E0,1.2185272E1,3.9665222E-2,0E0,0E0,0E0,0E0,0E0,0E0,0E0,0E0,0E0,0E0,0E0,0E0,0E0,0E0,0E0,0E0,0E0,0E0,0E0,0E0,0E0,0E0,0E0,0E0,0E0,0E0,0E0,0E0,0E0,0E0],"parents":[2147483647,0,0,1,1,2,2,3,3,4,4,5,5,6,6,7,7,8,8,9,9,10,10,11,11,12,12,13,13,14,14,16,16,17,17,18,18,19,19,20,20,21,21,22,22,23,23,24,24,25,25,26,26,27,27,28,28,29,29,30,30],"right_children":[2,4,6,8,10,12,14,16,18,20,22,24,26,28,30,-1,32,34,36,38,40,42,44,46,48,50,52,54,56,58,60,-1,-1,-1,-1,-1,-1,-1,-1,-1,-1,-1,-1,-1,-1,-1,-1,-1,-1,-1,-1,-1,-1,-1,-1,-1,-1,-1,-1,-1,-1],"split_conditions":[-2.40308E-1,-2.7560622E-1,-1.9138782E-1,-2.9012045E-1,7.747283E-1,-1.12685256E-1,-2.0064887E-1,2.205591E-1,7.6374024E-1,-1.9864207E-2,-2.603389E-1,-7.040928E-1,-1.3834147E0,1.0075498E0,-1.4409265E-1,-5.334831E-2,-3.0454865E-1,4.7031384E-2,1.349906E0,-9.0830404E-1,-2.5963646E-1,1.4971731E0,1.3960004E0,-1.3586054E0,-1.4676952E-1,5.162082E-1,1.5328991E-1,3.8081828E-1,1.3101695E0,2.6831207E-1,-1.1645856E-1,-4.867124E-2,-3.8570207E-2,-4.5010597E-2,-3.386218E-2,-2.797885E-2,-1.8526211E-2,-5.0269257E-2,-3.485417E-2,-2.5281852E-2,-1.6049756E-2,-1.227961E-2,2.2131465E-4,-5.2867626E-4,1.5317852E-2,-5.8535006E-2,-3.291702E-2,-1.8282155E-2,1.1438674E-2,-6.520572E-2,1.9311862E-2,2.1164356E-2,6.3750714E-2,-7.720115E-3,1.2027531E-2,2.60525E-2,4.8858922E-2,1.8545149E-2,4.9965065E-2,6.0077675E-2,7.275819E-2],"split_indices":[8,8,0,8,0,8,8,0,0,0,8,0,0,0,8,0,8,0,0,0,8,0,0,0,8,8,8,0,0,0,8,0,0,0,0,0,0,0,0,0,0,0,0,0,0,0,0,0,0,0,0,0,0,0,0,0,0,0,0,0,0],"split_type":[0,0,0,0,0,0,0,0,0,0,0,0,0,0,0,0,0,0,0,0,0,0,0,0,0,0,0,0,0,0,0,0,0,0,0,0,0,0,0,0,0,0,0,0,0,0,0,0,0,0,0,0,0,0,0,0,0,0,0,0,0],"sum_hessian":[5.62E3,2.004E3,3.616E3,1.072E3,9.32E2,2.094E3,1.522E3,6.71E2,4.01E2,4.82E2,4.5E2,6.04E2,1.49E3,8.49E2,6.73E2,2.38E2,4.33E2,2.04E2,1.97E2,2.31E2,2.51E2,1.87E2,2.63E2,2.82E2,3.22E2,5.13E2,9.77E2,4.77E2,3.72E2,5.48E2,1.25E2,1.97E2,2.36E2,1.06E2,9.8E1,1.18E2,7.9E1,4.6E1,1.85E2,1.12E2,1.39E2,1.43E2,4.4E1,1.62E2,1.01E2,4.5E1,2.37E2,2.46E2,7.6E1,1.56E2,3.57E2,7.45E2,2.32E2,1.73E2,3.04E2,1.61E2,2.11E2,1.91E2,3.57E2,8.3E1,4.2E1],"tree_param":{"num_deleted":"0","num_feature":"17","num_nodes":"61","size_leaf_vector":"1"}},{"base_weights":[-3.286779E-3,-2.5256482E-1,9.1707865E-3,3.0403864E-1,-2.6859635E-1,5.0034425E-3,1.3100237E-1,-7.582739E-3,3.691377E-1,-6.4185786E-1,-2.3676988E-1,3.382677E-1,4.3612174E-3,-2.1768989E-2,1.5047829E-1,1.0549758E-1,5.404934E-2,6.859966E-2,-8.2375973E-1,2.2702552E-1,-2.7488253E-1,7.2811705E-1,-4.298471E-2,-1.4492616E-1,6.664273E-3,1.1568446E-1,-1.8453623E-1,7.756927E-2,1.8654123E-1,1.9235939E-2,1.2423843E-3,-3.865866E-2,2.790429E-2,-9.103887E-2,2.3783663E-2,-6.0735974E-3,4.9208447E-2,6.297413E-2,-2.8581971E-2,-8.555703E-3,9.5292486E-2,-4.1208148E-2,1.1325094E-2,-2.805068E-2,2.979867E-2,2.0298436E-4,5.606541E-3,-3.5033093E-4,3.5493582E-2,-4.048727E-3,-2.404876E-2,3.301084E-3,3.7203148E-2,2.1713158E-2,2.662508E-3],"categories":[],"categories_nodes":[],"categories_segments":[],"categories_sizes":[],"default_left":[0,0,0,0,0,0,0,0,0,0,0,0,0,0,0,0,0,0,0,0,0,0,0,0,0,0,0,0,0,0,0,0,0,0,0,0,0,0,0,0,0,0,0,0,0,0,0,0,0,0,0,0,0,0,0],"id":12,"left_children":[1,3,5,7,9,11,13,-1,15,17,19,21,23,25,27,29,-1,31,33,35,37,39,41,43,45,47,49,51,53,-1,-1,-1,-1,-1,-1,-1,-1,-1,-1,-1,-1,-1,-1,-1,-1,-1,-1,-1,-1,-1,-1,-1,-1,-1,-1],"loss_changes":[1.7550919E1,2.482006E0,2.7323694E0,2.2582209E-1,2.9604778E0,1.1127692E0,5.328903E-1,0E0,2.592129E-1,2.641182E0,4.357786E0,1.5176082E0,1.7877834E0,4.9117926E-1,4.0096188E-1,2.9948369E-2,0E0,5.8682853E-1,1.6879616E0,1.4790885E0,2.406147E0,9.961307E-1,3.9266506E-1,4.8275685E0,1.1718612E0,3.4343347E-1,7.0860684E-2,6.9624066E-1,5.0786734E-1,0E0,0E0,0E0,0E0,0E0,0E0,0E0,0E0,0E0,0E0,0E0,0E0,0E0,0E0,0E0,0E0,0E0,0E0,0E0,0E0,0E0,0E0,0E0,0E0,0E0,0E0],"parents":[2147483647,0,0,1,1,2,2,3,3,4,4,5,5,6,6,8,8,9,9,10,10,11,11,12,12,13,13,14,14,15,15,17,17,18,18,19,19,20,20,21,21,22,22,23,23,24,24,25,25,26,26,27,27,28,28],"right_children":[2,4,6,8,10,12,14,-1,16,18,20,22,24,26,28,30,-1,32,34,36,38,40,42,44,46,48,50,52,54,-1,-1,-1,-1,-1,-1,-1,-1,-1,-1,-1,-1,-1,-1,-1,-1,-1,-1,-1,-1,-1,-1,-1,-1,-1,-1],"split_conditions":[-1.5691053E0,-1.4582312E0,1.6304804E0,-1.702214E0,-1.7001323E0,-9.32017E-1,-1.2847201E0,-7.582739E-3,-1.9862299E-1,-1.2398394E0,-1.6874856E0,2.9975292E-1,-1.5092586E0,-1.4582312E0,2.6453078E-2,-1.7001323E0,5.404934E-2,-4.824469E-1,1.2979676E0,2.7688044E-1,-1.659619E0,-8.508943E-1,6.3664097E-1,8.040687E-1,1.4653081E0,3.1136975E-1,1.6532857E0,2.8480902E0,3.0507293E0,1.9235939E-2,1.2423843E-3,-3.865866E-2,2.790429E-2,-9.103887E-2,2.3783663E-2,-6.0735974E-3,4.9208447E-2,6.297413E-2,-2.8581971E-2,-8.555703E-3,9.5292486E-2,-4.1208148E-2,1.1325094E-2,-2.805068E-2,2.979867E-2,2.0298436E-4,5.606541E-3,-3.5033093E-4,3.5493582E-2,-4.048727E-3,-2.404876E-2,3.301084E-3,3.7203148E-2,2.1713158E-2,2.662508E-3],"split_indices":[0,5,0,2,0,7,5,0,3,6,0,2,0,5,7,0,0,2,3,5,2,3,2,6,2,2,0,13,7,0,0,0,0,0,0,0,0,0,0,0,0,0,0,0,0,0,0,0,0,0,0,0,0,0,0],"split_type":[0,0,0,0,0,0,0,0,0,0,0,0,0,0,0,0,0,0,0,0,0,0,0,0,0,0,0,0,0,0,0,0,0,0,0,0,0,0,0,0,0,0,0,0,0,0,0,0,0,0,0,0,0,0,0],"sum_hessian":[5.65E3,2.68E2,5.382E3,7E0,2.61E2,5.205E3,1.77E2,1E0,6E0,1.9E1,2.42E2,9E0,5.196E3,2E1,1.57E2,3E0,3E0,4E0,1.5E1,1.8E1,2.24E2,4E0,5E0,7.8E1,5.118E3,1.1E1,9E0,5.3E1,1.04E2,1E0,2E0,1E0,3E0,1.4E1,1E0,9E0,9E0,2E0,2.22E2,1E0,3E0,1E0,4E0,6E1,1.8E1,4.68E3,4.38E2,8E0,3E0,3E0,6E0,4.7E1,6E0,8.7E1,1.7E1],"tree_param":{"num_deleted":"0","num_feature":"17","num_nodes":"55","size_leaf_vector":"1"}},{"base_weights":[-1.6748649E-3,-2.439293E-1,1.5776533E-1,-3.6663404E-1,-1.1025792E-1,4.196135E-2,2.7185676E-1,-4.2630747E-1,-2.8853756E-1,-2.8194556E-1,7.059875E-3,-2.2484362E-1,2.0220657E-1,2.2359078E-1,5.226942E-1,-4.967333E-2,-4.0105554E-1,-3.9398673E-1,-2.3496434E-1,-3.748036E-1,-2.1393389E-1,-5.3677257E-2,1.0758708E-1,-3.7038612E-1,-6.615702E-2,-1.2630515E-1,3.4120923E-1,-1.7166328E-2,3.077703E-1,4.5495117E-1,7.155528E-2,-4.9677886E-2,-3.765335E-2,-4.7319468E-2,-3.625713E-2,-2.8254325E-2,-1.7837003E-2,-4.2974174E-2,-3.269631E-2,-2.5408788E-2,-1.7995171E-2,-1.1021928E-2,-1.7480522E-4,1.0736696E-3,1.8103017E-2,-5.627383E-2,-3.108508E-2,-2.1177862E-2,8.181589E-3,-7.425943E-2,2.4661219E-2,2.1549994E-2,5.7529338E-2,-1.0454302E-2,1.11137405E-2,2.0354254E-2,3.9169084E-2,3.0113334E-2,5.8024097E-2],"categories":[],"categories_nodes":[],"categories_segments":[],"categories_sizes":[],"default_left":[0,0,0,0,0,0,0,0,0,0,0,0,0,0,0,0,0,0,0,0,0,0,0,0,0,0,0,0,0,0,0,0,0,0,0,0,0,0,0,0,0,0,0,0,0,0,0,0,0,0,0,0,0,0,0,0,0,0,0],"id":13,"left_children":[1,3,5,7,9,11,13,15,17,19,21,23,25,27,29,-1,31,33,35,37,39,41,43,45,47,49,51,53,55,57,-1,-1,-1,-1,-1,-1,-1,-1,-1,-1,-1,-1,-1,-1,-1,-1,-1,-1,-1,-1,-1,-1,-1,-1,-1,-1,-1,-1,-1],"loss_changes":[2.1807713E2,3.6716705E1,4.4976273E1,5.3202057E0,2.1634518E1,7.234285E1,2.0646477E1,9.745178E-1,2.782898E0,2.6733437E0,3.9073389E0,1.4641224E1,4.8309948E1,2.9189507E1,3.2803497E0,0E0,9.6549225E-1,2.514534E-1,8.6511993E-1,3.4046364E-1,3.0086422E-1,1.171344E0,1.712287E0,3.6156006E0,6.5894814E0,7.257798E1,2.1739944E1,4.204441E0,9.253166E0,3.8145332E0,0E0,0E0,0E0,0E0,0E0,0E0,0E0,0E0,0E0,0E0,0E0,0E0,0E0,0E0,0E0,0E0,0E0,0E0,0E0,0E0,0E0,0E0,0E0,0E0,0E0,0E0,0E0,0E0,0E0],"parents":[2147483647,0,0,1,1,2,2,3,3,4,4,5,5,6,6,7,7,8,8,9,9,10,10,11,11,12,12,13,13,14,14,16,16,17,17,18,18,19,19,20,20,21,21,22,22,23,23,24,24,25,25,26,26,27,27,28,28,29,29],"right_children":[2,4,6,8,10,12,14,16,18,20,22,24,26,28,30,-1,32,34,36,38,40,42,44,46,48,50,52,54,56,58,-1,-1,-1,-1,-1,-1,-1,-1,-1,-1,-1,-1,-1,-1,-1,-1,-1,-1,-1,-1,-1,-1,-1,-1,-1,-1,-1,-1,-1],"split_conditions":[-2.3290704E-1,-2.721129E-1,-5.4908574E-1,-2.9182923E-1,5.000279E-1,-3.127805E-2,-1.3542561E-1,-3.109541E-1,2.8102773E-1,-3.0002406E-1,1.3101695E0,-8.841857E-1,-1.5092586E0,8.904845E-2,-7.82834E-2,-4.967333E-2,-1.9138782E-1,-7.1777594E-1,1.1369182E0,-7.643541E-1,8.904845E-2,-2.541469E-1,-2.541469E-1,-1.3413286E0,-1.2991725E-1,1.2316823E0,2.240612E-1,-1.7655581E-1,-2.0870364E-1,-2.689259E-1,7.155528E-2,-4.9677886E-2,-3.765335E-2,-4.7319468E-2,-3.625713E-2,-2.8254325E-2,-1.7837003E-2,-4.2974174E-2,-3.269631E-2,-2.5408788E-2,-1.7995171E-2,-1.1021928E-2,-1.7480522E-4,1.0736696E-3,1.8103017E-2,-5.627383E-2,-3.108508E-2,-2.1177862E-2,8.181589E-3,-7.425943E-2,2.4661219E-2,2.1549994E-2,5.7529338E-2,-1.0454302E-2,1.11137405E-2,2.0354254E-2,3.9169084E-2,3.0113334E-2,5.8024097E-2],"split_indices":[8,8,0,8,0,8,8,8,0,0,0,0,0,0,8,0,0,0,0,0,0,8,8,0,8,8,8,8,8,0,0,0,0,0,0,0,0,0,0,0,0,0,0,0,0,0,0,0,0,0,0,0,0,0,0,0,0,0,0],"split_type":[0,0,0,0,0,0,0,0,0,0,0,0,0,0,0,0,0,0,0,0,0,0,0,0,0,0,0,0,0,0,0,0,0,0,0,0,0,0,0,0,0,0,0,0,0,0,0,0,0,0,0,0,0,0,0,0,0,0,0],"sum_hessian":[5.644E3,2.24E3,3.404E3,1.167E3,1.073E3,1.69E3,1.714E3,6.59E2,5.08E2,4.35E2,6.38E2,6.34E2,1.056E3,1.439E3,2.75E2,1.69E2,4.9E2,1.69E2,3.39E2,1.82E2,2.53E2,3.98E2,2.4E2,3.3E2,3.04E2,3.14E2,7.42E2,3.73E2,1.066E3,2.06E2,6.9E1,9.6E1,3.94E2,4.4E1,1.25E2,1.82E2,1.57E2,8.1E1,1.01E2,1.13E2,1.4E2,1.9E2,2.08E2,1.04E2,1.36E2,7.6E1,2.54E2,1.53E2,1.51E2,1.18E2,1.96E2,4.84E2,2.58E2,2.22E2,1.51E2,4.77E2,5.89E2,9.4E1,1.12E2],"tree_param":{"num_deleted":"0","num_feature":"17","num_nodes":"59","size_leaf_vector":"1"}},{"base_weights":[-4.596844E-3,-2.5191957E-1,5.611848E-3,-4.6436736E-1,-1.8942352E-1,2.0005195E-3,7.9421185E-2,1.340636E-1,-5.990001E-1,3.5111198E-1,-2.3525006E-1,-1.800742E-2,1.2786759E-2,-6.6855505E-2,9.7271524E-2,-7.0316315E-2,3.0521804E-1,5.354861E-2,-6.407494E-1,4.988428E-1,-1.429258E-1,-2.0165466E-1,-8.525552E-1,-3.849745E-2,1.0604675E-2,1.9591706E-2,-4.0573344E-2,5.814383E-2,-2.1555811E-1,3.1975693E-1,8.759576E-2,-2.4337683E-2,4.0421452E-2,-1.3988747E-2,-6.92515E-2,1.4932877E-2,6.7723244E-2,2.0654729E-2,-5.956725E-2,-2.8004128E-2,-4.6992595E-3,-1.0142865E-1,1.39781935E-2,4.772317E-3,-4.996447E-3,2.2041686E-3,-4.8823464E-3,5.9843278E-3,9.4399863E-4,-4.7517676E-2,-1.8851146E-3,-8.50354E-3,1.5255491E-2,-2.3541763E-2,1.1378069E-3,4.3657534E-2,1.3898715E-2,5.2841576E-3,1.540418E-2],"categories":[],"categories_nodes":[],"categories_segments":[],"categories_sizes":[],"default_left":[0,0,0,0,0,0,0,0,0,0,0,0,0,0,0,0,0,0,0,0,0,0,0,0,0,0,0,0,0,0,0,0,0,0,0,0,0,0,0,0,0,0,0,0,0,0,0,0,0,0,0,0,0,0,0,0,0,0,0],"id":14,"left_children":[1,3,5,7,9,11,13,15,17,19,21,23,25,27,29,-1,31,-1,33,35,37,39,41,43,45,47,49,51,53,55,57,-1,-1,-1,-1,-1,-1,-1,-1,-1,-1,-1,-1,-1,-1,-1,-1,-1,-1,-1,-1,-1,-1,-1,-1,-1,-1,-1,-1],"loss_changes":[1.4203646E1,2.8728418E0,1.4400095E0,4.1087246E0,4.392731E0,1.1120856E0,6.644975E-1,1.6475688E0,2.2850351E0,1.093082E0,3.166995E0,1.0586123E0,1.2164961E0,5.3298974E-1,4.5635152E-1,0E0,5.871571E-1,0E0,9.402237E-1,5.847163E-1,7.559256E-1,1.8538485E0,1.4257145E0,1.0424898E0,5.135551E-1,1.2130443E0,3.5690072E0,2.2925586E-1,6.1267555E-2,1.2937677E-1,4.9297345E-1,0E0,0E0,0E0,0E0,0E0,0E0,0E0,0E0,0E0,0E0,0E0,0E0,0E0,0E0,0E0,0E0,0E0,0E0,0E0,0E0,0E0,0E0,0E0,0E0,0E0,0E0,0E0,0E0],"parents":[2147483647,0,0,1,1,2,2,3,3,4,4,5,5,6,6,7,7,8,8,9,9,10,10,11,11,12,12,13,13,14,14,16,16,18,18,19,19,20,20,21,21,22,22,23,23,24,24,25,25,26,26,27,27,28,28,29,29,30,30],"right_children":[2,4,6,8,10,12,14,16,18,20,22,24,26,28,30,-1,32,-1,34,36,38,40,42,44,46,48,50,52,54,56,58,-1,-1,-1,-1,-1,-1,-1,-1,-1,-1,-1,-1,-1,-1,-1,-1,-1,-1,-1,-1,-1,-1,-1,-1,-1,-1,-1,-1],"split_conditions":[-1.5955042E0,-1.0252081E0,1.586252E0,-9.629539E-1,-7.868782E-1,-5.2528554E-1,-1.805168E-1,-1.3721906E0,-1.2847201E0,1.0413296E0,1.4867568E0,2.6831207E-1,2.8175428E0,6.239028E-1,-1.5931331E0,-7.0316315E-2,-1.2847201E0,5.354861E-2,-1.6874856E0,-9.74226E-1,-1.6430498E0,1.2553407E0,2.8480902E0,-8.400805E-1,1.3179475E0,-7.985836E-2,-1.4653065E0,-6.385168E-1,1.577604E0,1.0336928E-1,6.239028E-1,-2.4337683E-2,4.0421452E-2,-1.3988747E-2,-6.92515E-2,1.4932877E-2,6.7723244E-2,2.0654729E-2,-5.956725E-2,-2.8004128E-2,-4.6992595E-3,-1.0142865E-1,1.39781935E-2,4.772317E-3,-4.996447E-3,2.2041686E-3,-4.8823464E-3,5.9843278E-3,9.4399863E-4,-4.7517676E-2,-1.8851146E-3,-8.50354E-3,1.5255491E-2,-2.3541763E-2,1.1378069E-3,4.3657534E-2,1.3898715E-2,5.2841576E-3,1.540418E-2],"split_indices":[0,3,0,7,3,6,7,1,5,6,6,0,15,5,6,0,5,0,0,2,0,4,13,7,5,6,0,3,2,5,5,0,0,0,0,0,0,0,0,0,0,0,0,0,0,0,0,0,0,0,0,0,0,0,0,0,0,0,0],"split_type":[0,0,0,0,0,0,0,0,0,0,0,0,0,0,0,0,0,0,0,0,0,0,0,0,0,0,0,0,0,0,0,0,0,0,0,0,0,0,0,0,0,0,0,0,0,0,0,0,0,0,0,0,0,0,0,0,0,0,0],"sum_hessian":[5.624E3,2.22E2,5.402E3,4.9E1,1.73E2,5.151E3,2.51E2,9E0,4E1,1.3E1,1.6E2,1.804E3,3.347E3,2.7E1,2.24E2,1E0,8E0,1E0,3.9E1,1E1,3E0,1.53E2,7E0,1.051E3,7.53E2,2.969E3,3.78E2,1.5E1,1.2E1,8E0,2.16E2,1E0,7E0,4E0,3.5E1,4E0,6E0,2E0,1E0,1.01E2,5.2E1,6E0,1E0,1.23E2,9.28E2,6.32E2,1.21E2,5.97E2,2.372E3,1.7E1,3.61E2,6E0,9E0,1.1E1,1E0,4E0,4E0,1.43E2,7.3E1],"tree_param":{"num_deleted":"0","num_feature":"17","num_nodes":"59","size_leaf_vector":"1"}},{"base_weights":[6.1181124E-4,-2.363661E-1,1.3866419E-1,-3.3465016E-1,-1.180673E-1,3.5295434E-2,2.2371039E-1,-3.905978E-1,-2.7242994E-1,-2.3923917E-1,2.860167E-4,-2.0808436E-1,1.9734243E-1,1.7801173E-1,4.7346413E-1,-4.1742885E-1,-3.419827E-1,-3.716525E-1,-2.3060837E-1,-3.360689E-1,-1.8633002E-1,-4.1018736E-2,9.7146556E-2,-3.5670248E-1,-7.759674E-2,2.3016842E-2,4.08654E-1,-2.7649144E-2,2.5924942E-1,3.9540678E-1,6.3691986E-1,-4.4957716E-2,-3.947298E-2,-4.0793963E-2,-3.0373475E-2,-4.7766026E-2,-3.5269037E-2,-2.6990801E-2,-1.7630018E-2,-3.858153E-2,-2.9402478E-2,-2.2639709E-2,-1.4960594E-2,-1.057884E-2,-4.97869E-4,3.0552729E-3,1.8016813E-2,-5.8651686E-2,-3.1023204E-2,-1.6905552E-2,1.9136397E-2,-4.42054E-2,1.9448968E-2,3.3388402E-2,7.108432E-2,-1.4385815E-2,6.215343E-3,1.6028935E-2,3.544663E-2,2.5580341E-2,5.3117126E-2,5.6868047E-2,7.658158E-2],"categories":[],"categories_nodes":[],"categories_segments":[],"categories_sizes":[],"default_left":[0,0,0,0,0,0,0,0,0,0,0,0,0,0,0,0,0,0,0,0,0,0,0,0,0,0,0,0,0,0,0,0,0,0,0,0,0,0,0,0,0,0,0,0,0,0,0,0,0,0,0,0,0,0,0,0,0,0,0,0,0,0,0],"id":15,"left_children":[1,3,5,7,9,11,13,15,17,19,21,23,25,27,29,31,33,35,37,39,41,43,45,47,49,51,53,55,57,59,61,-1,-1,-1,-1,-1,-1,-1,-1,-1,-1,-1,-1,-1,-1,-1,-1,-1,-1,-1,-1,-1,-1,-1,-1,-1,-1,-1,-1,-1,-1,-1,-1],"loss_changes":[1.8281349E2,2.3876991E1,3.1033546E1,3.8028183E0,1.3408991E1,6.2946205E1,2.202349E1,6.2553406E-1,2.1343575E0,2.3042889E0,1.9003643E0,1.2344938E1,3.5280457E1,2.7390629E1,3.5630722E0,9.6191406E-2,4.1847992E-1,1.4712524E-1,7.613125E-1,2.2538948E-1,4.09029E-1,7.767958E-1,7.7957404E-1,3.000557E0,8.420547E0,4.2032906E1,9.546165E0,4.861619E0,1.1014809E1,3.7495308E0,4.0009308E-1,0E0,0E0,0E0,0E0,0E0,0E0,0E0,0E0,0E0,0E0,0E0,0E0,0E0,0E0,0E0,0E0,0E0,0E0,0E0,0E0,0E0,0E0,0E0,0E0,0E0,0E0,0E0,0E0,0E0,0E0,0E0,0E0],"parents":[2147483647,0,0,1,1,2,2,3,3,4,4,5,5,6,6,7,7,8,8,9,9,10,10,11,11,12,12,13,13,14,14,15,15,16,16,17,17,18,18,19,19,20,20,21,21,22,22,23,23,24,24,25,25,26,26,27,27,28,28,29,29,30,30],"right_children":[2,4,6,8,10,12,14,16,18,20,22,24,26,28,30,32,34,36,38,40,42,44,46,48,50,52,54,56,58,60,62,-1,-1,-1,-1,-1,-1,-1,-1,-1,-1,-1,-1,-1,-1,-1,-1,-1,-1,-1,-1,-1,-1,-1,-1,-1,-1,-1,-1,-1,-1,-1,-1],"split_conditions":[-2.3844932E-1,-2.730239E-1,-6.374045E-1,-2.9439846E-1,7.230362E-1,9.430224E-3,-1.2991725E-1,1.0631119E0,1.3161838E-1,-3.0002406E-1,1.4708432E0,-9.801753E-1,-1.3413286E0,8.904845E-2,-7.408217E-2,-8.5377656E-2,-3.0940396E-1,-1.0379487E0,1.0962832E0,-7.643541E-1,2.205591E-1,-2.61208E-1,-2.5352246E-1,-1.4121633E0,-5.7129785E-2,4.24169E-1,2.689102E-1,-1.935557E-1,-2.0870364E-1,-2.8454408E-1,-3.127805E-2,-4.4957716E-2,-3.947298E-2,-4.0793963E-2,-3.0373475E-2,-4.7766026E-2,-3.5269037E-2,-2.6990801E-2,-1.7630018E-2,-3.858153E-2,-2.9402478E-2,-2.2639709E-2,-1.4960594E-2,-1.057884E-2,-4.97869E-4,3.0552729E-3,1.8016813E-2,-5.8651686E-2,-3.1023204E-2,-1.6905552E-2,1.9136397E-2,-4.42054E-2,1.9448968E-2,3.3388402E-2,7.108432E-2,-1.4385815E-2,6.215343E-3,1.6028935E-2,3.544663E-2,2.5580341E-2,5.3117126E-2,5.6868047E-2,7.658158E-2],"split_indices":[8,8,0,8,0,8,8,0,0,0,0,0,0,0,8,0,8,0,0,0,0,8,8,0,8,8,8,8,8,0,8,0,0,0,0,0,0,0,0,0,0,0,0,0,0,0,0,0,0,0,0,0,0,0,0,0,0,0,0,0,0,0,0],"split_type":[0,0,0,0,0,0,0,0,0,0,0,0,0,0,0,0,0,0,0,0,0,0,0,0,0,0,0,0,0,0,0,0,0,0,0,0,0,0,0,0,0,0,0,0,0,0,0,0,0,0,0,0,0,0,0,0,0,0,0,0,0,0,0],"sum_hessian":[5.586E3,2.056E3,3.53E3,1.122E3,9.34E2,1.594E3,1.936E3,5.88E2,5.34E2,4.61E2,4.73E2,6.37E2,9.57E2,1.638E3,2.98E2,3.74E2,2.14E2,1.56E2,3.78E2,1.61E2,3E2,3.32E2,1.41E2,2.97E2,3.4E2,5.25E2,4.32E2,4.64E2,1.174E3,2.04E2,9.4E1,1.47E2,2.27E2,7.5E1,1.39E2,2E1,1.36E2,2.17E2,1.61E2,7E1,9.1E1,1.41E2,1.59E2,1.18E2,2.14E2,7.9E1,6.2E1,4.8E1,2.49E2,2.54E2,8.6E1,1.41E2,3.84E2,3.48E2,8.4E1,2.02E2,2.62E2,5.77E2,5.97E2,1.02E2,1.02E2,6.5E1,2.9E1],"tree_param":{"num_deleted":"0","num_feature":"17","num_nodes":"63","size_leaf_vector":"1"}},{"base_weights":[-1.7061399E-3,-2.0660824E-1,1.2619273E-1,-2.959706E-1,-9.4188705E-2,-9.28544E-3,1.755155E-1,-3.4734672E-1,-2.3426595E-1,-2.2398292E-1,-5.6925796E-2,-2.0829418E-1,1.2745813E-1,1.4337434E-1,3.4722447E-1,-3.8709643E-1,-3.1686425E-1,-3.452346E-1,-2.159428E-1,-3.3038592E-1,-1.9621423E-1,-1.06915474E-1,-1.5601975E-2,-3.874679E-1,-8.076645E-2,-6.546696E-2,2.977561E-1,4.041687E-2,2.0045015E-1,2.0615593E-1,3.9661726E-1,-4.3006103E-2,-3.6628332E-2,-3.6321957E-2,-2.9882735E-2,-3.905963E-2,-3.0439803E-2,-2.4843624E-2,-1.8888846E-2,-4.3561038E-2,-2.8848803E-2,-2.6133865E-2,-1.4866498E-2,-1.3500768E-2,-6.975514E-3,-5.3543407E-3,3.7789568E-3,-5.116039E-2,-2.9350892E-2,-1.7268142E-2,8.9788E-3,-4.247586E-2,1.7059747E-2,4.991167E-4,3.9039735E-2,-1.8451465E-2,1.1572121E-2,1.0518545E-2,2.4214957E-2,4.6467925E-3,4.316094E-2,3.536695E-2,5.3984154E-2],"categories":[],"categories_nodes":[],"categories_segments":[],"categories_sizes":[],"default_left":[0,0,0,0,0,0,0,0,0,0,0,0,0,0,0,0,0,0,0,0,0,0,0,0,0,0,0,0,0,0,0,0,0,0,0,0,0,0,0,0,0,0,0,0,0,0,0,0,0,0,0,0,0,0,0,0,0,0,0,0,0,0,0],"id":16,"left_children":[1,3,5,7,9,11,13,15,17,19,21,23,25,27,29,31,33,35,37,39,41,43,45,47,49,51,53,55,57,59,61,-1,-1,-1,-1,-1,-1,-1,-1,-1,-1,-1,-1,-1,-1,-1,-1,-1,-1,-1,-1,-1,-1,-1,-1,-1,-1,-1,-1,-1,-1,-1,-1],"loss_changes":[1.449756E2,2.133007E1,2.2761063E1,3.672081E0,4.5480785E0,2.479053E1,1.3730972E1,6.576538E-1,1.0254631E0,5.556545E-1,1.5146031E0,8.445913E0,1.7761059E1,1.2361683E1,2.6565704E0,8.8386536E-2,2.0082092E-1,2.003479E-2,3.636074E-1,5.9496403E-2,4.8447657E-1,3.371625E-1,8.184012E-1,1.6460476E0,3.4329834E0,2.1615719E1,7.782095E0,1.2758966E1,5.3532677E0,3.7241745E0,1.5929108E0,0E0,0E0,0E0,0E0,0E0,0E0,0E0,0E0,0E0,0E0,0E0,0E0,0E0,0E0,0E0,0E0,0E0,0E0,0E0,0E0,0E0,0E0,0E0,0E0,0E0,0E0,0E0,0E0,0E0,0E0,0E0,0E0],"parents":[2147483647,0,0,1,1,2,2,3,3,4,4,5,5,6,6,7,7,8,8,9,9,10,10,11,11,12,12,13,13,14,14,15,15,16,16,17,17,18,18,19,19,20,20,21,21,22,22,23,23,24,24,25,25,26,26,27,27,28,28,29,29,30,30],"right_children":[2,4,6,8,10,12,14,16,18,20,22,24,26,28,30,32,34,36,38,40,42,44,46,48,50,52,54,56,58,60,62,-1,-1,-1,-1,-1,-1,-1,-1,-1,-1,-1,-1,-1,-1,-1,-1,-1,-1,-1,-1,-1,-1,-1,-1,-1,-1,-1,-1,-1,-1,-1,-1],"split_conditions":[-2.3519577E-1,-2.7025837E-1,-7.381946E-1,-2.9182923E-1,-3.8073382E-1,1.37889E-1,-5.046039E-2,-3.061285E-1,-5.1757735E-1,-7.0248795E-1,-2.5475144E-1,-8.300394E-1,-9.055172E-1,-3.54311E-1,-1.1410507E0,-3.1321684E-1,-3.2158086E-1,-6.915809E-1,-2.822047E-1,-8.4872097E-1,7.08068E-1,1.4648488E-2,1.4648488E-2,-8.787189E-1,9.430224E-3,1.4221654E0,-4.476312E-1,2.4578834E-1,-9.099109E-1,-1.805168E-1,-4.841491E-1,-4.3006103E-2,-3.6628332E-2,-3.6321957E-2,-2.9882735E-2,-3.905963E-2,-3.0439803E-2,-2.4843624E-2,-1.8888846E-2,-4.3561038E-2,-2.8848803E-2,-2.6133865E-2,-1.4866498E-2,-1.3500768E-2,-6.975514E-3,-5.3543407E-3,3.7789568E-3,-5.116039E-2,-2.9350892E-2,-1.7268142E-2,8.9788E-3,-4.247586E-2,1.7059747E-2,4.991167E-4,3.9039735E-2,-1.8451465E-2,1.1572121E-2,1.0518545E-2,2.4214957E-2,4.6467925E-3,4.316094E-2,3.536695E-2,5.3984154E-2],"split_indices":[8,8,7,8,7,8,8,8,7,7,8,7,7,7,1,8,7,7,8,7,1,1,1,7,8,8,1,1,1,7,7,0,0,0,0,0,0,0,0,0,0,0,0,0,0,0,0,0,0,0,0,0,0,0,0,0,0,0,0,0,0,0,0],"split_type":[0,0,0,0,0,0,0,0,0,0,0,0,0,0,0,0,0,0,0,0,0,0,0,0,0,0,0,0,0,0,0,0,0,0,0,0,0,0,0,0,0,0,0,0,0,0,0,0,0,0,0,0,0,0,0,0,0,0,0,0,0,0,0],"sum_hessian":[5.53E3,2.125E3,3.405E3,1.183E3,9.42E2,9.09E2,2.496E3,6.43E2,5.4E2,2.09E2,7.33E2,3.7E2,5.39E2,2.104E3,3.92E2,2.74E2,3.69E2,7.4E1,4.66E2,4.1E1,1.68E2,3.31E2,4.02E2,1.53E2,2.17E2,2.53E2,2.86E2,7.51E2,1.353E3,1.03E2,2.89E2,8.3E1,1.91E2,9.8E1,2.71E2,3.1E1,4.3E1,2.08E2,2.58E2,9E0,3.2E1,6.9E1,9.9E1,1.87E2,1.44E2,2.35E2,1.67E2,6.4E1,8.9E1,1.41E2,7.6E1,1E2,1.53E2,6.9E1,2.17E2,1.88E2,5.63E2,4.13E2,9.4E2,6.1E1,4.2E1,2.25E2,6.4E1],"tree_param":{"num_deleted":"0","num_feature":"17","num_nodes":"63","size_leaf_vector":"1"}},{"base_weights":[-2.7716341E-3,-1.9179307E-1,6.878311E-3,-2.1889712E-1,7.0987225E-2,6.587744E-1,5.7660323E-3,-3.3300504E-2,-2.6048985E-1,-3.0425936E-1,2.5466678E-1,-3.5022178E-3,7.4987674E-1,-1.5165178E-2,2.0451088E-2,-3.1483337E-1,1.7647572E-1,-4.437217E-1,-1.689803E-1,8.673446E-2,-6.344014E-2,4.2635086E-1,-7.602973E-2,8.497473E-2,3.0017674E-2,-2.1035492E-2,4.5665443E-2,1.814706E-2,1.3320434E-1,-1.42816575E-2,-6.9240324E-2,2.6915032E-2,-4.2369075E-2,-3.4696285E-2,-8.95974E-2,6.216071E-3,-2.9313698E-2,-1.4851895E-2,2.930764E-2,-2.188756E-2,5.049056E-2,2.7509404E-2,-1.8039938E-2,-1.831941E-3,-1.4055892E-2,3.6166867E-3,3.3409342E-2,3.770474E-3,5.94382E-4,-2.2557778E-2,1.55270845E-2],"categories":[],"categories_nodes":[],"categories_segments":[],"categories_sizes":[],"default_left":[0,0,0,0,0,0,0,0,0,0,0,0,0,0,0,0,0,0,0,0,0,0,0,0,0,0,0,0,0,0,0,0,0,0,0,0,0,0,0,0,0,0,0,0,0,0,0,0,0,0,0],"id":17,"left_children":[1,3,5,7,9,11,13,15,17,19,21,-1,23,25,27,29,31,33,35,37,-1,39,41,-1,-1,43,45,47,49,-1,-1,-1,-1,-1,-1,-1,-1,-1,-1,-1,-1,-1,-1,-1,-1,-1,-1,-1,-1,-1,-1],"loss_changes":[1.013937E1,1.93859E0,3.8312023E0,1.8825951E0,1.8695383E0,5.951214E-1,1.6235626E0,2.7722697E0,3.278513E0,1.2167757E0,1.0543711E0,0E0,1.0421944E-1,7.7871305E-1,8.039601E-1,1.2000806E0,1.6157814E0,2.5772514E0,3.8924105E0,2.8624064E-1,0E0,7.1873856E-1,3.061534E-1,0E0,0E0,6.424759E-1,5.139307E-1,7.260399E-1,5.258839E-1,0E0,0E0,0E0,0E0,0E0,0E0,0E0,0E0,0E0,0E0,0E0,0E0,0E0,0E0,0E0,0E0,0E0,0E0,0E0,0E0,0E0,0E0],"parents":[2147483647,0,0,1,1,2,2,3,3,4,4,5,5,6,6,7,7,8,8,9,9,10,10,12,12,13,13,14,14,15,15,16,16,17,17,18,18,19,19,21,21,22,22,25,25,26,26,27,27,28,28],"right_children":[2,4,6,8,10,12,14,16,18,20,22,-1,24,26,28,30,32,34,36,38,-1,40,42,-1,-1,44,46,48,50,-1,-1,-1,-1,-1,-1,-1,-1,-1,-1,-1,-1,-1,-1,-1,-1,-1,-1,-1,-1,-1,-1],"split_conditions":[-1.5691053E0,2.8646088E0,-9.32017E-1,-1.0372151E0,2.4578834E-1,-1.2847201E0,-2.1649136E-1,-1.375615E0,-2.1668812E-2,4.552777E-1,4.352826E-1,-3.5022178E-3,9.574939E-2,1.4237123E0,1.6860279E0,2.7809396E0,1.4459467E0,1.1703477E0,5.4464024E-1,-1.6657169E0,-6.344014E-2,-1.051416E0,-1.2847201E0,8.497473E-2,3.0017674E-2,1.653359E0,1.653359E0,-4.3985188E-1,-8.897052E-1,-1.42816575E-2,-6.9240324E-2,2.6915032E-2,-4.2369075E-2,-3.4696285E-2,-8.95974E-2,6.216071E-3,-2.9313698E-2,-1.4851895E-2,2.930764E-2,-2.188756E-2,5.049056E-2,2.7509404E-2,-1.8039938E-2,-1.831941E-3,-1.4055892E-2,3.6166867E-3,3.3409342E-2,3.770474E-3,5.94382E-4,-2.2557778E-2,1.55270845E-2],"split_indices":[0,12,7,6,1,5,1,6,6,6,2,0,6,0,2,9,2,1,6,0,0,6,5,0,0,6,6,2,7,0,0,0,0,0,0,0,0,0,0,0,0,0,0,0,0,0,0,0,0,0,0],"split_type":[0,0,0,0,0,0,0,0,0,0,0,0,0,0,0,0,0,0,0,0,0,0,0,0,0,0,0,0,0,0,0,0,0,0,0,0,0,0,0,0,0,0,0,0,0,0,0,0,0,0,0],"sum_hessian":[5.557E3,2.69E2,5.288E3,2.44E2,2.5E1,8E0,5.28E3,4.5E1,1.99E2,8E0,1.7E1,1E0,7E0,2.177E3,3.103E3,1.9E1,2.6E1,6.5E1,1.34E2,4E0,4E0,1.1E1,6E0,5E0,2E0,1.986E3,1.91E2,3.042E3,6.1E1,1.4E1,5E0,2.3E1,3E0,5.5E1,1E1,4.7E1,8.7E1,2E0,2E0,1E0,1E1,1E0,5E0,1.943E3,4.3E1,1.86E2,5E0,1.168E3,1.874E3,3E0,5.8E1],"tree_param":{"num_deleted":"0","num_feature":"17","num_nodes":"51","size_leaf_vector":"1"}},{"base_weights":[-2.545691E-3,-1.9469465E-1,1.0665968E-1,-2.8283823E-1,-1.0661913E-1,-6.744555E-3,1.8296826E-1,-3.3531076E-1,-2.4047376E-1,-2.0181261E-1,-3.0826682E-3,-2.2414954E-1,1.3326992E-1,1.273132E-1,3.5783803E-1,-3.802706E-2,-3.1688026E-1,-2.813339E-1,-1.7239524E-1,-2.6350713E-1,-1.4051314E-1,-6.925109E-2,4.2859267E-2,-3.3389762E-1,-1.2706326E-1,-1.06576785E-1,2.700271E-1,-3.757971E-2,2.4137743E-1,2.902568E-1,4.8137987E-1,-3.4250297E-2,-2.7573386E-2,-3.5919297E-2,-2.6190618E-2,-1.8754745E-2,-1.2463063E-2,-3.0101543E-2,-2.2734119E-2,-1.7363386E-2,-1.0804948E-2,-1.01505825E-2,-3.3289716E-3,1.1622414E-3,1.280109E-2,-4.827645E-2,-2.900657E-2,-1.7949238E-2,6.766943E-3,-6.226567E-2,1.2976098E-2,2.0657578E-2,6.188206E-2,-1.1276621E-2,8.112817E-3,1.5557582E-2,3.386041E-2,5.456425E-3,4.0996388E-2,4.086991E-2,5.709675E-2],"categories":[],"categories_nodes":[],"categories_segments":[],"categories_sizes":[],"default_left":[0,0,0,0,0,0,0,0,0,0,0,0,0,0,0,0,0,0,0,0,0,0,0,0,0,0,0,0,0,0,0,0,0,0,0,0,0,0,0,0,0,0,0,0,0,0,0,0,0,0,0,0,0,0,0,0,0,0,0,0,0],"id":18,"left_children":[1,3,5,7,9,11,13,15,17,19,21,23,25,27,29,-1,31,33,35,37,39,41,43,45,47,49,51,53,55,57,59,-1,-1,-1,-1,-1,-1,-1,-1,-1,-1,-1,-1,-1,-1,-1,-1,-1,-1,-1,-1,-1,-1,-1,-1,-1,-1,-1,-1,-1,-1],"loss_changes":[1.1847375E2,1.58535385E1,3.1154613E1,2.1912384E0,1.0101773E1,4.4137207E1,2.0898537E1,2.5570297E-1,1.5342865E0,1.9824753E0,1.4986014E0,6.009634E0,2.895905E1,3.0741968E1,4.1934586E0,0E0,2.5136185E-1,4.413929E-1,1.3295364E-1,2.9104614E-1,2.7154875E-1,2.3092562E-1,7.72534E-1,1.5956497E0,3.1056747E0,3.9232903E1,1.2310013E1,5.9801273E0,8.005894E0,9.513987E0,9.517021E-1,0E0,0E0,0E0,0E0,0E0,0E0,0E0,0E0,0E0,0E0,0E0,0E0,0E0,0E0,0E0,0E0,0E0,0E0,0E0,0E0,0E0,0E0,0E0,0E0,0E0,0E0,0E0,0E0,0E0,0E0],"parents":[2147483647,0,0,1,1,2,2,3,3,4,4,5,5,6,6,7,7,8,8,9,9,10,10,11,11,12,12,13,13,14,14,16,16,17,17,18,18,19,19,20,20,21,21,22,22,23,23,24,24,25,25,26,26,27,27,28,28,29,29,30,30],"right_children":[2,4,6,8,10,12,14,16,18,20,22,24,26,28,30,-1,32,34,36,38,40,42,44,46,48,50,52,54,56,58,60,-1,-1,-1,-1,-1,-1,-1,-1,-1,-1,-1,-1,-1,-1,-1,-1,-1,-1,-1,-1,-1,-1,-1,-1,-1,-1,-1,-1,-1,-1],"split_conditions":[-2.3920676E-1,-2.7802882E-1,-7.39752E-1,-3.0057523E-1,7.8841144E-1,2.4588883E-2,-1.4887293E-1,-3.1239194E-1,9.8737055E-1,2.8096063E-2,-2.6202354E-1,-1.0818317E0,-1.5092586E0,3.712815E-1,-8.455914E-2,-3.802706E-2,9.307719E-1,-5.947655E-1,-2.8290612E-1,-5.010564E-1,-2.587132E-1,1.25827E0,1.5095432E0,-1.4245335E0,-3.127805E-2,1.0890576E0,5.162082E-1,-1.8390085E-1,-2.09497E-1,-3.930421E-1,-5.364392E-1,-3.4250297E-2,-2.7573386E-2,-3.5919297E-2,-2.6190618E-2,-1.8754745E-2,-1.2463063E-2,-3.0101543E-2,-2.2734119E-2,-1.7363386E-2,-1.0804948E-2,-1.01505825E-2,-3.3289716E-3,1.1622414E-3,1.280109E-2,-4.827645E-2,-2.900657E-2,-1.7949238E-2,6.766943E-3,-6.226567E-2,1.2976098E-2,2.0657578E-2,6.188206E-2,-1.1276621E-2,8.112817E-3,1.5557582E-2,3.386041E-2,5.456425E-3,4.0996388E-2,4.086991E-2,5.709675E-2],"split_indices":[8,8,0,8,0,8,8,8,0,0,8,0,0,0,8,0,0,0,8,0,8,0,0,0,8,8,8,8,8,0,0,0,0,0,0,0,0,0,0,0,0,0,0,0,0,0,0,0,0,0,0,0,0,0,0,0,0,0,0,0,0],"split_type":[0,0,0,0,0,0,0,0,0,0,0,0,0,0,0,0,0,0,0,0,0,0,0,0,0,0,0,0,0,0,0,0,0,0,0,0,0,0,0,0,0,0,0,0,0,0,0,0,0,0,0,0,0,0,0,0,0,0,0,0,0],"sum_hessian":[5.644E3,2.045E3,3.599E3,1.021E3,1.024E3,1.448E3,2.151E3,4.53E2,5.68E2,5.33E2,4.91E2,5.67E2,8.81E2,1.633E3,5.18E2,1.26E2,3.27E2,3.53E2,2.15E2,2.64E2,2.69E2,2.01E2,2.9E2,2.65E2,3.02E2,3.2E2,5.61E2,6.68E2,9.65E2,3.37E2,1.81E2,1.97E2,1.3E2,6.7E1,2.86E2,1.61E2,5.4E1,1.26E2,1.38E2,1.31E2,1.38E2,1.05E2,9.6E1,2.13E2,7.7E1,5.8E1,2.07E2,2.38E2,6.4E1,1E2,2.2E2,4.76E2,8.5E1,4.09E2,2.59E2,5.14E2,4.51E2,1.14E2,2.23E2,1.03E2,7.8E1],"tree_param":{"num_deleted":"0","num_feature":"17","num_nodes":"61","size_leaf_vector":"1"}},{"base_weights":[-3.4477892E-3,-1.6297518E-1,1.06932335E-1,-2.4150977E-1,-7.2193965E-2,-2.7944202E-2,1.4832109E-1,-2.8415978E-1,-1.8920298E-1,-1.9491695E-1,-4.5663934E-2,-2.3602003E-1,1.1009317E-1,1.1639509E-1,3.1902152E-1,-3.1066725E-1,-2.5448447E-1,-2.881807E-1,-1.7192635E-1,-2.4296091E-1,-1.3579687E-1,-8.4768996E-2,-1.5454664E-2,-4.2827842E-1,-1.5943629E-1,-2.6074816E-2,2.481263E-1,-2.6843652E-2,1.4302394E-1,2.77687E-1,5.3921586E-1,-3.599901E-2,-2.9780893E-2,-3.8051724E-2,-2.42674E-2,-3.6672328E-2,-2.6920632E-2,-1.9795708E-2,-1.5387795E-2,-3.6507897E-2,-2.212652E-2,-1.8546762E-2,-7.816235E-3,-9.224756E-3,2.883295E-4,-4.450307E-3,2.119017E-3,-5.530705E-2,-3.4334738E-2,-3.7688933E-2,-1.026638E-2,-5.1575728E-2,1.619782E-2,-5.0296705E-2,2.9118553E-2,-1.6790135E-2,1.22118695E-2,8.239007E-3,1.8279493E-2,2.1563254E-2,4.0784344E-2,4.4411432E-2,6.460469E-2],"categories":[],"categories_nodes":[],"categories_segments":[],"categories_sizes":[],"default_left":[0,0,0,0,0,0,0,0,0,0,0,0,0,0,0,0,0,0,0,0,0,0,0,0,0,0,0,0,0,0,0,0,0,0,0,0,0,0,0,0,0,0,0,0,0,0,0,0,0,0,0,0,0,0,0,0,0,0,0,0,0,0,0],"id":19,"left_children":[1,3,5,7,9,11,13,15,17,19,21,23,25,27,29,31,33,35,37,39,41,43,45,47,49,51,53,55,57,59,61,-1,-1,-1,-1,-1,-1,-1,-1,-1,-1,-1,-1,-1,-1,-1,-1,-1,-1,-1,-1,-1,-1,-1,-1,-1,-1,-1,-1,-1,-1,-1,-1],"loss_changes":[9.873153E1,1.6330421E1,1.8504128E1,2.687996E0,3.4585738E0,2.240061E1,1.3783508E1,4.519043E-1,8.995056E-1,5.038357E-1,1.0347213E0,4.5108395E0,8.8216505E0,8.158775E0,3.4818153E0,1.1603165E-1,3.8993645E-1,2.1989346E-2,1.9269943E-1,1.9211245E-1,2.3456275E-1,2.5067186E-1,5.289222E-1,7.427921E-1,2.726666E0,2.1907984E1,7.682025E0,7.0806313E0,4.332821E0,2.6420078E0,3.4298897E-1,0E0,0E0,0E0,0E0,0E0,0E0,0E0,0E0,0E0,0E0,0E0,0E0,0E0,0E0,0E0,0E0,0E0,0E0,0E0,0E0,0E0,0E0,0E0,0E0,0E0,0E0,0E0,0E0,0E0,0E0,0E0,0E0],"parents":[2147483647,0,0,1,1,2,2,3,3,4,4,5,5,6,6,7,7,8,8,9,9,10,10,11,11,12,12,13,13,14,14,15,15,16,16,17,17,18,18,19,19,20,20,21,21,22,22,23,23,24,24,25,25,26,26,27,27,28,28,29,29,30,30],"right_children":[2,4,6,8,10,12,14,16,18,20,22,24,26,28,30,32,34,36,38,40,42,44,46,48,50,52,54,56,58,60,62,-1,-1,-1,-1,-1,-1,-1,-1,-1,-1,-1,-1,-1,-1,-1,-1,-1,-1,-1,-1,-1,-1,-1,-1,-1,-1,-1,-1,-1,-1,-1,-1],"split_conditions":[-2.3067847E-1,-2.7025837E-1,-7.706125E-1,-2.9182923E-1,-4.4182718E-1,1.5328991E-1,-1.816304E-2,-3.037248E-1,-5.1757735E-1,-5.771237E-1,-2.541469E-1,-8.6713934E-1,-9.0153086E-1,-5.988205E-1,3.1500313E-1,-3.1427398E-1,-6.915809E-1,-8.238649E-1,-2.8290612E-1,-8.4459877E-1,9.3920785E-1,2.7429173E0,1.4648488E-2,7.08068E-1,2.4578834E-1,8.835349E-1,-1.3721906E0,9.3920785E-1,-2.0064887E-1,1.4648488E-2,-6.5477914E-1,-3.599901E-2,-2.9780893E-2,-3.8051724E-2,-2.42674E-2,-3.6672328E-2,-2.6920632E-2,-1.9795708E-2,-1.5387795E-2,-3.6507897E-2,-2.212652E-2,-1.8546762E-2,-7.816235E-3,-9.224756E-3,2.883295E-4,-4.450307E-3,2.119017E-3,-5.530705E-2,-3.4334738E-2,-3.7688933E-2,-1.026638E-2,-5.1575728E-2,1.619782E-2,-5.0296705E-2,2.9118553E-2,-1.6790135E-2,1.22118695E-2,8.239007E-3,1.8279493E-2,2.1563254E-2,4.0784344E-2,4.4411432E-2,6.460469E-2],"split_indices":[8,8,7,8,7,8,8,8,7,7,8,7,7,7,8,8,7,7,8,7,1,7,1,1,1,8,1,1,8,1,7,0,0,0,0,0,0,0,0,0,0,0,0,0,0,0,0,0,0,0,0,0,0,0,0,0,0,0,0,0,0,0,0],"split_type":[0,0,0,0,0,0,0,0,0,0,0,0,0,0,0,0,0,0,0,0,0,0,0,0,0,0,0,0,0,0,0,0,0,0,0,0,0,0,0,0,0,0,0,0,0,0,0,0,0,0,0,0,0,0,0,0,0,0,0,0,0,0,0],"sum_hessian":[5.605E3,2.292E3,3.313E3,1.228E3,1.064E3,7.78E2,2.535E3,6.74E2,5.54E2,1.88E2,8.76E2,3.1E2,4.68E2,2.137E3,3.98E2,3.51E2,3.23E2,8E1,4.74E2,1.02E2,8.6E1,3.81E2,4.95E2,8.7E1,2.23E2,2.36E2,2.32E2,3.35E2,1.802E3,3.37E2,6.1E1,6.7E1,2.84E2,2.5E1,2.98E2,1.2E1,6.8E1,1.9E2,2.84E2,1.3E1,8.9E1,4.5E1,4.1E1,3.51E2,3E1,2.76E2,2.19E2,3.3E1,5.4E1,4.5E1,1.78E2,6.5E1,1.71E2,1.2E1,2.2E2,1.72E2,1.63E2,7.15E2,1.087E3,2.3E2,1.07E2,3.5E1,2.6E1],"tree_param":{"num_deleted":"0","num_feature":"17","num_nodes":"63","size_leaf_vector":"1"}},{"base_weights":[1.1992083E-3,-1.4917503E-1,1.02170214E-1,-2.1667278E-1,-6.807099E-2,2.0174995E-2,1.7352511E-1,-2.612446E-1,-1.776308E-1,-1.5679975E-1,4.2941265E-2,-1.7978771E-1,1.2918931E-1,1.0644231E-1,2.924783E-1,-3.2303683E-2,-2.4686258E-1,-2.3013434E-1,-1.2344468E-1,-2.377773E-1,-1.0944564E-1,9.741911E-3,1.0670685E-1,-2.8641558E-1,-1.21938005E-1,-2.7225479E-3,2.7579454E-1,-3.7616696E-2,2.6405108E-1,2.4898413E-1,4.555085E-1,-2.8688837E-2,-2.2346932E-2,-3.0508596E-2,-2.1727452E-2,-1.5466678E-2,-9.165678E-3,-2.838105E-2,-2.0165453E-2,-1.3223468E-2,-7.49002E-3,-2.9651073E-3,4.3691495E-3,5.0313435E-3,1.819902E-2,-4.575489E-2,-2.6717667E-2,-2.3188865E-2,-7.458081E-3,-3.300738E-2,1.7523501E-2,1.2849072E-2,4.1070092E-2,-1.2336108E-2,8.888291E-4,2.2856671E-2,4.216013E-2,7.854246E-3,3.276122E-2,4.093201E-2,5.469374E-2],"categories":[],"categories_nodes":[],"categories_segments":[],"categories_sizes":[],"default_left":[0,0,0,0,0,0,0,0,0,0,0,0,0,0,0,0,0,0,0,0,0,0,0,0,0,0,0,0,0,0,0,0,0,0,0,0,0,0,0,0,0,0,0,0,0,0,0,0,0,0,0,0,0,0,0,0,0,0,0,0,0],"id":20,"left_children":[1,3,5,7,9,11,13,15,17,19,21,23,25,27,29,-1,31,33,35,37,39,41,43,45,47,49,51,53,55,57,59,-1,-1,-1,-1,-1,-1,-1,-1,-1,-1,-1,-1,-1,-1,-1,-1,-1,-1,-1,-1,-1,-1,-1,-1,-1,-1,-1,-1,-1,-1],"loss_changes":[8.4587E1,1.223682E1,1.9497078E1,2.0783463E0,1.0034012E1,3.385496E1,1.4188713E1,4.2503357E-1,1.8321972E0,2.144371E0,9.5795065E-1,3.345354E0,1.9436417E1,2.5916298E1,4.438923E0,0E0,3.7128448E-1,2.527523E-1,3.0738878E-1,2.8864002E-1,2.727208E-1,4.011707E-1,6.4889336E-1,5.0989914E-1,1.841588E0,3.093279E1,9.406406E0,2.3816586E0,2.9504967E0,6.7956276E0,3.4200287E-1,0E0,0E0,0E0,0E0,0E0,0E0,0E0,0E0,0E0,0E0,0E0,0E0,0E0,0E0,0E0,0E0,0E0,0E0,0E0,0E0,0E0,0E0,0E0,0E0,0E0,0E0,0E0,0E0,0E0,0E0],"parents":[2147483647,0,0,1,1,2,2,3,3,4,4,5,5,6,6,7,7,8,8,9,9,10,10,11,11,12,12,13,13,14,14,16,16,17,17,18,18,19,19,20,20,21,21,22,22,23,23,24,24,25,25,26,26,27,27,28,28,29,29,30,30],"right_children":[2,4,6,8,10,12,14,16,18,20,22,24,26,28,30,-1,32,34,36,38,40,42,44,46,48,50,52,54,56,58,60,-1,-1,-1,-1,-1,-1,-1,-1,-1,-1,-1,-1,-1,-1,-1,-1,-1,-1,-1,-1,-1,-1,-1,-1,-1,-1,-1,-1,-1,-1],"split_conditions":[-2.3067847E-1,-2.7025837E-1,-6.374045E-1,6.175098E-1,8.2282674E-1,-1.816304E-2,-1.7219408E-1,-7.643541E-1,-2.9334065E-1,-1.7680624E-1,1.4557089E0,-1.0818317E0,-1.3284746E0,6.6609204E-1,-8.767555E-2,-3.2303683E-2,-3.0131447E-1,-3.1321684E-1,1.187159E0,-2.1649136E-1,4.6015313E-1,-2.5180972E-1,-2.4965379E-1,-1.5241166E0,-1.6156319E-1,5.162082E-1,8.888204E-2,-3.437668E-2,1.4432695E0,-2.226242E-1,-4.4343952E-2,-2.8688837E-2,-2.2346932E-2,-3.0508596E-2,-2.1727452E-2,-1.5466678E-2,-9.165678E-3,-2.838105E-2,-2.0165453E-2,-1.3223468E-2,-7.49002E-3,-2.9651073E-3,4.3691495E-3,5.0313435E-3,1.819902E-2,-4.575489E-2,-2.6717667E-2,-2.3188865E-2,-7.458081E-3,-3.300738E-2,1.7523501E-2,1.2849072E-2,4.1070092E-2,-1.2336108E-2,8.888291E-4,2.2856671E-2,4.216013E-2,7.854246E-3,3.276122E-2,4.093201E-2,5.469374E-2],"split_indices":[8,8,0,0,0,8,8,0,8,0,0,0,0,0,8,0,8,8,0,1,0,8,8,0,8,8,8,0,0,0,8,0,0,0,0,0,0,0,0,0,0,0,0,0,0,0,0,0,0,0,0,0,0,0,0,0,0,0,0,0,0],"split_type":[0,0,0,0,0,0,0,0,0,0,0,0,0,0,0,0,0,0,0,0,0,0,0,0,0,0,0,0,0,0,0,0,0,0,0,0,0,0,0,0,0,0,0,0,0,0,0,0,0,0,0,0,0,0,0,0,0,0,0,0,0],"sum_hessian":[5.569E3,2.237E3,3.332E3,1.22E3,1.017E3,1.551E3,1.781E3,5.67E2,6.53E2,5.65E2,4.52E2,5.47E2,1.004E3,1.14E3,6.41E2,1.03E2,4.64E2,3.3E2,3.23E2,2.07E2,3.58E2,2.98E2,1.54E2,1.91E2,3.56E2,5.29E2,4.75E2,5.96E2,5.44E2,5.08E2,1.33E2,1.67E2,2.97E2,4.5E1,2.85E2,1.61E2,1.62E2,8.8E1,1.19E2,2.14E2,1.44E2,1.38E2,1.6E2,8.9E1,6.5E1,1.7E1,1.74E2,1.06E2,2.5E2,1.86E2,3.43E2,2.28E2,2.47E2,2.09E2,3.87E2,4.46E2,9.8E1,1.61E2,3.47E2,9.2E1,4.1E1],"tree_param":{"num_deleted":"0","num_feature":"17","num_nodes":"61","size_leaf_vector":"1"}},{"base_weights":[1.4041374E-3,-1.2447655E-1,9.574566E-2,-2.0316684E-1,-5.8586523E-2,3.1222578E-2,1.9178139E-1,-2.451116E-1,-1.7459556E-1,-1.4772028E-1,3.7844237E-2,-1.3428542E-1,9.10551E-2,1.4954434E-1,3.326369E-1,-2.8122572E-2,-2.3046426E-1,-2.0382078E-1,-1.0790219E-1,-2.3056802E-1,-1.0505315E-1,-1.5540184E-2,8.68948E-2,-2.6248884E-1,-1.1334045E-1,-1.8812856E-1,1.410413E-1,2.8849153E-2,2.7337638E-1,2.8055233E-1,4.0504876E-1,-2.8155748E-2,-2.1529699E-2,-2.7217036E-2,-1.8873623E-2,-1.2876851E-2,-5.755925E-3,-2.6165375E-2,-1.8247863E-2,-1.3256353E-2,-7.768467E-3,-5.1999707E-3,1.3676242E-3,4.0738937E-3,1.690825E-2,-2.989473E-2,-1.9937841E-2,-1.6069217E-2,-5.75412E-3,-6.9854714E-2,1.9208627E-2,7.7948803E-3,3.9414104E-2,-4.8049274E-3,1.0207333E-2,2.3581069E-2,3.8882703E-2,1.5920576E-2,4.1460082E-2,3.6986835E-2,4.819296E-2],"categories":[],"categories_nodes":[],"categories_segments":[],"categories_sizes":[],"default_left":[0,0,0,0,0,0,0,0,0,0,0,0,0,0,0,0,0,0,0,0,0,0,0,0,0,0,0,0,0,0,0,0,0,0,0,0,0,0,0,0,0,0,0,0,0,0,0,0,0,0,0,0,0,0,0,0,0,0,0,0,0],"id":21,"left_children":[1,3,5,7,9,11,13,15,17,19,21,23,25,27,29,-1,31,33,35,37,39,41,43,45,47,49,51,53,55,57,59,-1,-1,-1,-1,-1,-1,-1,-1,-1,-1,-1,-1,-1,-1,-1,-1,-1,-1,-1,-1,-1,-1,-1,-1,-1,-1,-1,-1,-1,-1],"loss_changes":[6.6753784E1,1.2473351E1,1.9903435E1,1.271862E0,1.1282539E1,1.9055239E1,7.630829E0,1.689949E-1,1.2566357E0,2.3865633E0,1.6536466E0,1.3423939E0,1.9745407E1,1.4863319E1,1.0065117E0,0E0,1.8736267E-1,4.177475E-1,2.0478368E-1,2.9757404E-1,3.3002043E-1,3.234719E-1,1.2411551E0,1.03761196E-1,1.1559591E0,4.1858955E1,1.9115742E1,2.8484707E0,2.0377655E0,2.7968655E0,1.5172386E-1,0E0,0E0,0E0,0E0,0E0,0E0,0E0,0E0,0E0,0E0,0E0,0E0,0E0,0E0,0E0,0E0,0E0,0E0,0E0,0E0,0E0,0E0,0E0,0E0,0E0,0E0,0E0,0E0,0E0,0E0],"parents":[2147483647,0,0,1,1,2,2,3,3,4,4,5,5,6,6,7,7,8,8,9,9,10,10,11,11,12,12,13,13,14,14,16,16,17,17,18,18,19,19,20,20,21,21,22,22,23,23,24,24,25,25,26,26,27,27,28,28,29,29,30,30],"right_children":[2,4,6,8,10,12,14,16,18,20,22,24,26,28,30,-1,32,34,36,38,40,42,44,46,48,50,52,54,56,58,60,-1,-1,-1,-1,-1,-1,-1,-1,-1,-1,-1,-1,-1,-1,-1,-1,-1,-1,-1,-1,-1,-1,-1,-1,-1,-1,-1,-1,-1,-1],"split_conditions":[-2.2555497E-1,-2.746707E-1,-2.689259E-1,-3.0057523E-1,8.2282674E-1,-1.09868534E-1,-1.6156319E-1,-3.437668E-2,1.0962832E0,-2.0652226E-1,-2.5180972E-1,-2.062118E-1,-1.5955042E0,6.510267E-1,-1.2991725E-1,-2.8122572E-2,-3.1321684E-1,-5.103858E-1,-2.822047E-1,-5.671227E-1,3.447444E-1,1.25827E0,1.3787236E0,-5.4908574E-1,-6.743768E-1,1.9054823E0,3.7823048E-1,-1.9655885E-1,-1.9481805E-1,1.4226085E-1,-1.9864207E-2,-2.8155748E-2,-2.1529699E-2,-2.7217036E-2,-1.8873623E-2,-1.2876851E-2,-5.755925E-3,-2.6165375E-2,-1.8247863E-2,-1.3256353E-2,-7.768467E-3,-5.1999707E-3,1.3676242E-3,4.0738937E-3,1.690825E-2,-2.989473E-2,-1.9937841E-2,-1.6069217E-2,-5.75412E-3,-6.9854714E-2,1.9208627E-2,7.7948803E-3,3.9414104E-2,-4.8049274E-3,1.0207333E-2,2.3581069E-2,3.8882703E-2,1.5920576E-2,4.1460082E-2,3.6986835E-2,4.819296E-2],"split_indices":[8,8,0,8,0,8,8,0,0,0,8,8,0,0,8,0,8,0,8,0,0,0,0,0,0,8,8,8,8,0,0,0,0,0,0,0,0,0,0,0,0,0,0,0,0,0,0,0,0,0,0,0,0,0,0,0,0,0,0,0,0],"split_type":[0,0,0,0,0,0,0,0,0,0,0,0,0,0,0,0,0,0,0,0,0,0,0,0,0,0,0,0,0,0,0,0,0,0,0,0,0,0,0,0,0,0,0,0,0,0,0,0,0,0,0,0,0,0,0,0,0,0,0,0,0],"sum_hessian":[5.619E3,2.407E3,3.212E3,1.096E3,1.311E3,1.922E3,1.29E3,4.41E2,6.55E2,6.81E2,6.3E2,5.1E2,1.412E3,9.94E2,2.96E2,1.22E2,3.19E2,4.54E2,2.01E2,2.3E2,4.51E2,3.02E2,3.28E2,7E1,4.4E2,2.14E2,1.198E3,5.04E2,4.9E2,1.75E2,1.21E2,6.9E1,2.5E2,7.9E1,3.75E2,1.41E2,6E1,1.37E2,9.3E1,2.23E2,2.28E2,1.34E2,1.68E2,2.11E2,1.17E2,4.2E1,2.8E1,2.37E2,2.03E2,9.1E1,1.23E2,9.6E2,2.38E2,2.46E2,2.58E2,3.72E2,1.18E2,9.3E1,8.2E1,8.7E1,3.4E1],"tree_param":{"num_deleted":"0","num_feature":"17","num_nodes":"61","size_leaf_vector":"1"}},{"base_weights":[1.8176956E-3,-1.1316674E-1,8.650088E-2,-1.757552E-1,-4.522101E-2,-4.651506E-3,1.2599416E-1,-2.088963E-1,-1.3609794E-1,-1.618137E-1,-2.5279937E-2,-1.4132988E-1,9.518083E-2,1.0606295E-1,2.4475174E-1,-2.540276E-2,-1.992148E-1,-1.8636258E-1,-1.1925897E-1,-2.4227268E-1,-1.3583171E-1,-6.1325848E-2,-4.456595E-3,-2.454474E-1,-4.2463936E-2,-1.4705178E-1,1.747428E-1,3.330969E-2,1.3792899E-1,2.0832326E-1,4.1648307E-1,-2.6677495E-2,-1.9196872E-2,-2.5127113E-2,-1.7399147E-2,-1.3989404E-2,-1.0630113E-2,-2.491353E-2,-7.687607E-3,-1.7504785E-2,-8.460052E-3,-1.0530173E-2,-5.06928E-3,-3.1826638E-3,2.809163E-3,-4.3843932E-2,-2.099462E-2,-2.1239629E-2,6.2932894E-3,-4.0035255E-2,2.3552528E-2,8.739319E-3,3.5006564E-2,-1.4084386E-2,9.221453E-3,6.3266433E-3,1.7184187E-2,1.5201745E-2,4.0329423E-2,4.3338176E-2,-2.4802275E-2],"categories":[],"categories_nodes":[],"categories_segments":[],"categories_sizes":[],"default_left":[0,0,0,0,0,0,0,0,0,0,0,0,0,0,0,0,0,0,0,0,0,0,0,0,0,0,0,0,0,0,0,0,0,0,0,0,0,0,0,0,0,0,0,0,0,0,0,0,0,0,0,0,0,0,0,0,0,0,0,0,0],"id":22,"left_children":[1,3,5,7,9,11,13,15,17,19,21,23,25,27,29,-1,31,33,35,37,39,41,43,45,47,49,51,53,55,57,59,-1,-1,-1,-1,-1,-1,-1,-1,-1,-1,-1,-1,-1,-1,-1,-1,-1,-1,-1,-1,-1,-1,-1,-1,-1,-1,-1,-1,-1,-1],"loss_changes":[5.409047E1,1.0011223E1,1.1516691E1,1.5828819E0,2.6254656E0,1.3221735E1,5.257141E0,2.403965E-1,4.526081E-1,3.1202126E-1,7.255534E-1,4.199692E0,1.0818298E1,4.4304256E0,1.9151287E0,0E0,2.1950531E-1,6.789684E-2,9.8232746E-2,2.5114775E-2,2.4034548E-1,1.6019142E-1,5.478737E-1,1.271388E0,3.7924461E0,1.3564373E1,6.4320755E0,6.003944E0,3.3567162E0,2.858839E0,7.2509956E-1,0E0,0E0,0E0,0E0,0E0,0E0,0E0,0E0,0E0,0E0,0E0,0E0,0E0,0E0,0E0,0E0,0E0,0E0,0E0,0E0,0E0,0E0,0E0,0E0,0E0,0E0,0E0,0E0,0E0,0E0],"parents":[2147483647,0,0,1,1,2,2,3,3,4,4,5,5,6,6,7,7,8,8,9,9,10,10,11,11,12,12,13,13,14,14,16,16,17,17,18,18,19,19,20,20,21,21,22,22,23,23,24,24,25,25,26,26,27,27,28,28,29,29,30,30],"right_children":[2,4,6,8,10,12,14,16,18,20,22,24,26,28,30,-1,32,34,36,38,40,42,44,46,48,50,52,54,56,58,60,-1,-1,-1,-1,-1,-1,-1,-1,-1,-1,-1,-1,-1,-1,-1,-1,-1,-1,-1,-1,-1,-1,-1,-1,-1,-1,-1,-1,-1,-1],"split_conditions":[-2.2645961E-1,-2.682653E-1,-7.166646E-1,-2.9085803E-1,-4.88763E-1,1.37889E-1,-3.127805E-2,-3.1239194E-1,-3.641959E-1,2.4578834E-1,-2.541469E-1,-8.10687E-1,-9.370417E-1,-4.1588306E-1,2.689102E-1,-2.540276E-2,-6.4209116E-1,-2.1649136E-1,-2.822047E-1,1.6649698E0,-6.14248E-1,-2.6126006E-1,1.4648488E-2,-9.163381E-1,7.08068E-1,3.7166872E0,8.835349E-1,2.4578834E-1,-9.099109E-1,1.4648488E-2,1.519861E0,-2.6677495E-2,-1.9196872E-2,-2.5127113E-2,-1.7399147E-2,-1.3989404E-2,-1.0630113E-2,-2.491353E-2,-7.687607E-3,-1.7504785E-2,-8.460052E-3,-1.0530173E-2,-5.06928E-3,-3.1826638E-3,2.809163E-3,-4.3843932E-2,-2.099462E-2,-2.1239629E-2,6.2932894E-3,-4.0035255E-2,2.3552528E-2,8.739319E-3,3.5006564E-2,-1.4084386E-2,9.221453E-3,6.3266433E-3,1.7184187E-2,1.5201745E-2,4.0329423E-2,4.3338176E-2,-2.4802275E-2],"split_indices":[8,8,7,8,7,8,8,8,7,1,8,7,7,7,8,0,7,1,8,5,7,7,1,7,1,8,8,1,1,1,3,0,0,0,0,0,0,0,0,0,0,0,0,0,0,0,0,0,0,0,0,0,0,0,0,0,0,0,0,0,0],"split_type":[0,0,0,0,0,0,0,0,0,0,0,0,0,0,0,0,0,0,0,0,0,0,0,0,0,0,0,0,0,0,0,0,0,0,0,0,0,0,0,0,0,0,0,0,0,0,0,0,0,0,0,0,0,0,0,0,0,0,0,0,0],"sum_hessian":[5.553E3,2.355E3,3.198E3,1.225E3,1.13E3,9.67E2,2.231E3,6.65E2,5.6E2,1.64E2,9.66E2,4.08E2,5.59E2,1.912E3,3.19E2,1.13E2,5.52E2,1.38E2,4.22E2,3.8E1,1.26E2,3.53E2,6.13E2,1.98E2,2.1E2,1.38E2,4.21E2,5.83E2,1.329E3,2.65E2,5.4E1,5E1,5.02E2,1.9E1,1.19E2,1.59E2,2.63E2,3.6E1,2E0,7E1,5.6E1,6.7E1,2.86E2,3.33E2,2.8E2,2.9E1,1.69E2,8E1,1.3E2,8.3E1,5.5E1,2.82E2,1.39E2,1.47E2,4.36E2,4.16E2,9.13E2,2.07E2,5.8E1,5.3E1,1E0],"tree_param":{"num_deleted":"0","num_feature":"17","num_nodes":"61","size_leaf_vector":"1"}},{"base_weights":[-1.3964539E-3,-1.0994886E-1,6.971466E-2,-1.5890315E-1,-4.737843E-2,-3.161609E-2,1.1248195E-1,-1.8963972E-1,-1.2433511E-1,-1.1133053E-1,4.6985514E-2,-2.3621063E-1,1.0753336E-1,9.1888554E-2,4.091771E-1,-2.2046243E-1,-1.7073467E-1,-1.5434538E-1,-6.6058815E-2,-1.5968761E-1,-6.977046E-2,2.7026948E-2,1.215084E-1,-4.1511667E-1,-1.8419951E-1,-1.10106796E-1,2.5153714E-1,-1.051003E-1,1.2491058E-1,2.625219E-1,4.7587746E-1,-2.683106E-2,-2.0739807E-2,-1.9099897E-2,-1.3537997E-2,-1.8383648E-2,-1.2598257E-2,-7.92018E-3,-4.5971829E-4,-2.089769E-2,-1.3757494E-2,-9.714651E-3,-5.8196383E-3,-1.8648514E-4,5.3816084E-3,7.633141E-3,1.7683236E-2,-2.2746036E-2,-4.8174277E-2,-2.1221621E-2,-6.6096E-3,-6.619721E-2,1.3691706E-2,1.747561E-2,5.843197E-2,-2.5984168E-2,-7.5914487E-3,9.455637E-3,3.095897E-2,6.9138743E-3,5.354912E-2,4.1426685E-2,5.841685E-2],"categories":[],"categories_nodes":[],"categories_segments":[],"categories_sizes":[],"default_left":[0,0,0,0,0,0,0,0,0,0,0,0,0,0,0,0,0,0,0,0,0,0,0,0,0,0,0,0,0,0,0,0,0,0,0,0,0,0,0,0,0,0,0,0,0,0,0,0,0,0,0,0,0,0,0,0,0,0,0,0,0,0,0],"id":23,"left_children":[1,3,5,7,9,11,13,15,17,19,21,23,25,27,29,31,33,35,37,39,41,43,45,47,49,51,53,55,57,59,61,-1,-1,-1,-1,-1,-1,-1,-1,-1,-1,-1,-1,-1,-1,-1,-1,-1,-1,-1,-1,-1,-1,-1,-1,-1,-1,-1,-1,-1,-1,-1,-1],"loss_changes":[4.3745117E1,6.8629837E0,1.4841946E1,1.3130474E0,5.955517E0,2.8978594E1,1.467519E1,3.492775E-1,1.0303917E0,1.1705761E0,5.901767E-1,3.7572403E0,1.9020346E1,1.4668827E1,1.4010582E0,1.00004196E-1,2.721815E-1,3.0472946E-1,1.6442496E-1,2.6661825E-1,9.510565E-2,2.4468003E-1,1.9644916E-1,1.0406799E0,1.0481205E0,3.308102E1,9.224148E0,1.4435401E0,1.0789896E1,2.6551478E0,4.6521568E-1,0E0,0E0,0E0,0E0,0E0,0E0,0E0,0E0,0E0,0E0,0E0,0E0,0E0,0E0,0E0,0E0,0E0,0E0,0E0,0E0,0E0,0E0,0E0,0E0,0E0,0E0,0E0,0E0,0E0,0E0,0E0,0E0],"parents":[2147483647,0,0,1,1,2,2,3,3,4,4,5,5,6,6,7,7,8,8,9,9,10,10,11,11,12,12,13,13,14,14,15,15,16,16,17,17,18,18,19,19,20,20,21,21,22,22,23,23,24,24,25,25,26,26,27,27,28,28,29,29,30,30],"right_children":[2,4,6,8,10,12,14,16,18,20,22,24,26,28,30,32,34,36,38,40,42,44,46,48,50,52,54,56,58,60,62,-1,-1,-1,-1,-1,-1,-1,-1,-1,-1,-1,-1,-1,-1,-1,-1,-1,-1,-1,-1,-1,-1,-1,-1,-1,-1,-1,-1,-1,-1,-1,-1],"split_conditions":[-2.3290704E-1,-2.693358E-1,-1.0818317E0,7.6374024E-1,9.176416E-1,1.9051738E-1,2.4588883E-2,-1.7680624E-1,-2.8622723E-1,5.8157615E-2,1.586252E0,-1.4245335E0,-1.5691053E0,-7.39752E-1,-1.0086474E0,-1.0700835E0,-2.872355E-1,-3.0190358E-1,1.5218443E0,-6.787711E-1,-2.587132E-1,-2.5180972E-1,-2.4965379E-1,-1.1645856E-1,1.10466026E-1,1.4221654E0,8.835349E-1,-1.8904243E-1,-1.09868534E-1,1.37889E-1,9.948496E-2,-2.683106E-2,-2.0739807E-2,-1.9099897E-2,-1.3537997E-2,-1.8383648E-2,-1.2598257E-2,-7.92018E-3,-4.5971829E-4,-2.089769E-2,-1.3757494E-2,-9.714651E-3,-5.8196383E-3,-1.8648514E-4,5.3816084E-3,7.633141E-3,1.7683236E-2,-2.2746036E-2,-4.8174277E-2,-2.1221621E-2,-6.6096E-3,-6.619721E-2,1.3691706E-2,1.747561E-2,5.843197E-2,-2.5984168E-2,-7.5914487E-3,9.455637E-3,3.095897E-2,6.9138743E-3,5.354912E-2,4.1426685E-2,5.841685E-2],"split_indices":[8,8,0,0,0,8,8,0,8,0,0,0,0,0,0,0,8,8,0,1,8,8,8,8,8,8,8,8,8,8,8,0,0,0,0,0,0,0,0,0,0,0,0,0,0,0,0,0,0,0,0,0,0,0,0,0,0,0,0,0,0,0,0],"split_type":[0,0,0,0,0,0,0,0,0,0,0,0,0,0,0,0,0,0,0,0,0,0,0,0,0,0,0,0,0,0,0,0,0,0,0,0,0,0,0,0,0,0,0,0,0,0,0,0,0,0,0,0,0,0,0,0,0,0,0,0,0,0,0],"sum_hessian":[5.665E3,2.242E3,3.423E3,1.257E3,9.85E2,1.016E3,2.407E3,6.63E2,5.94E2,5.87E2,3.98E2,4.11E2,6.05E2,2.252E3,1.55E2,2.48E2,4.15E2,3.91E2,2.03E2,2.7E2,3.17E2,3.15E2,8.3E1,9.1E1,3.2E2,2.41E2,3.64E2,3.23E2,1.929E3,5E1,1.05E2,4.9E1,1.99E2,2.61E2,1.54E2,1.89E2,2.02E2,1.67E2,3.6E1,8.1E1,1.89E2,9.2E1,2.25E2,1.52E2,1.63E2,4.7E1,3.6E1,2.5E1,6.6E1,2.58E2,6.2E1,7.4E1,1.67E2,2.97E2,6.7E1,5E1,2.73E2,1.658E3,2.71E2,3E1,2E1,7E1,3.5E1],"tree_param":{"num_deleted":"0","num_feature":"17","num_nodes":"63","size_leaf_vector":"1"}},{"base_weights":[1.7493602E-4,-1.7082238E-1,5.61544E-3,-4.2342818E-1,-1.20865256E-1,-3.650829E-3,4.7468662E-2,-5.4108995E-1,4.1781512E-1,-2.325282E-2,-2.4754727E-1,-1.78697E-2,1.825469E-2,3.810899E-2,9.742308E-2,3.1154526E-2,-6.287776E-1,1.6484734E-2,5.8835924E-2,-7.534208E-2,4.1340804E-1,8.247754E-2,-3.0407876E-1,-3.004493E-2,-1.2669738E-3,3.6773425E-2,3.5276131E-3,3.606661E-2,1.4626548E-1,2.1220562E-1,7.96966E-2,7.5381994E-3,-7.381707E-2,-3.997991E-3,-5.6241658E-2,6.800078E-2,-8.984357E-3,-4.511681E-2,3.756354E-2,-4.0036246E-2,-5.0382316E-3,-4.594765E-3,3.0191336E-4,6.6401884E-3,-3.730988E-4,-1.4639119E-2,4.0349546E-3,1.2343182E-4,8.69208E-3,2.2517897E-3,4.6107136E-3,-3.1147792E-3,2.1361103E-2,2.6733914E-2,-6.6627114E-4,-6.2064487E-3,8.911514E-3],"categories":[],"categories_nodes":[],"categories_segments":[],"categories_sizes":[],"default_left":[0,0,0,0,0,0,0,0,0,0,0,0,0,0,0,0,0,0,0,0,0,0,0,0,0,0,0,0,0,0,0,0,0,0,0,0,0,0,0,0,0,0,0,0,0,0,0,0,0,0,0,0,0,0,0,0,0],"id":24,"left_children":[1,3,5,7,9,11,13,15,17,19,21,23,25,27,29,-1,31,-1,-1,33,35,37,39,41,43,45,47,49,51,53,55,-1,-1,-1,-1,-1,-1,-1,-1,-1,-1,-1,-1,-1,-1,-1,-1,-1,-1,-1,-1,-1,-1,-1,-1,-1,-1],"loss_changes":[5.189307E0,2.1193695E0,2.0967455E0,2.9975777E0,1.7872758E0,1.3792117E0,4.5449328E-1,2.0650315E0,7.557917E-2,1.9190105E0,1.2004585E0,5.427133E-1,4.7523308E-1,1.7740631E-1,2.964301E-1,0E0,1.8273382E0,0E0,0E0,1.2693157E0,1.268595E0,1.7338988E0,1.2988772E0,8.146162E-1,1.8982776E-1,5.115806E-1,1.8578301E-1,1.0955918E-1,1.8587342E-1,2.4312073E-1,1.8578029E-1,0E0,0E0,0E0,0E0,0E0,0E0,0E0,0E0,0E0,0E0,0E0,0E0,0E0,0E0,0E0,0E0,0E0,0E0,0E0,0E0,0E0,0E0,0E0,0E0,0E0,0E0],"parents":[2147483647,0,0,1,1,2,2,3,3,4,4,5,5,6,6,7,7,8,8,9,9,10,10,11,11,12,12,13,13,14,14,16,16,19,19,20,20,21,21,22,22,23,23,24,24,25,25,26,26,27,27,28,28,29,29,30,30],"right_children":[2,4,6,8,10,12,14,16,18,20,22,24,26,28,30,-1,32,-1,-1,34,36,38,40,42,44,46,48,50,52,54,56,-1,-1,-1,-1,-1,-1,-1,-1,-1,-1,-1,-1,-1,-1,-1,-1,-1,-1,-1,-1,-1,-1,-1,-1,-1,-1],"split_conditions":[-1.6216266E0,-9.663293E-1,1.121991E0,1.4195116E0,9.550465E-2,4.7692817E-1,1.6414685E0,-1.4582312E0,1.3179475E0,-4.1610733E-2,-1.6874856E0,-3.9004865E-3,-6.3563746E-1,4.7795897E0,-1.389816E0,3.1154526E-2,-1.1404322E0,1.6484734E-2,5.8835924E-2,-8.6713934E-1,-1.0090765E0,-2.187513E-1,1.147876E0,6.253669E-1,-1.5821733E0,-9.405605E-1,1.658922E0,1.4527182E-1,-1.1212322E0,2.8372123E0,-1.6247095E0,7.5381994E-3,-7.381707E-2,-3.997991E-3,-5.6241658E-2,6.800078E-2,-8.984357E-3,-4.511681E-2,3.756354E-2,-4.0036246E-2,-5.0382316E-3,-4.594765E-3,3.0191336E-4,6.6401884E-3,-3.730988E-4,-1.4639119E-2,4.0349546E-3,1.2343182E-4,8.69208E-3,2.2517897E-3,4.6107136E-3,-3.1147792E-3,2.1361103E-2,2.6733914E-2,-6.6627114E-4,-6.2064487E-3,8.911514E-3],"split_indices":[0,7,0,3,3,1,0,5,5,3,0,0,7,7,6,0,6,0,0,7,2,6,3,3,2,7,2,7,3,16,3,0,0,0,0,0,0,0,0,0,0,0,0,0,0,0,0,0,0,0,0,0,0,0,0,0,0],"split_type":[0,0,0,0,0,0,0,0,0,0,0,0,0,0,0,0,0,0,0,0,0,0,0,0,0,0,0,0,0,0,0,0,0,0,0,0,0,0,0,0,0,0,0,0,0,0,0,0,0,0,0,0,0,0,0,0,0],"sum_hessian":[5.576E3,1.71E2,5.405E3,2.7E1,1.44E2,4.426E3,9.79E2,2.4E1,3E0,8.2E1,6.2E1,2.684E3,1.742E3,8.26E2,1.53E2,2E0,2.2E1,2E0,1E0,7.4E1,8E0,9E0,5.3E1,1.548E3,1.136E3,7.71E2,9.71E2,8.12E2,1.4E1,1.9E1,1.34E2,3E0,1.9E1,7E1,4E0,5E0,3E0,3E0,6E0,3.8E1,1.5E1,1.045E3,5.03E2,3.9E1,1.097E3,1.4E1,7.57E2,9.46E2,2.5E1,3.47E2,4.65E2,4E0,1E1,1.5E1,4E0,8E0,1.26E2],"tree_param":{"num_deleted":"0","num_feature":"17","num_nodes":"57","size_leaf_vector":"1"}},{"base_weights":[-4.2245572E-4,-1.02438144E-1,6.1495885E-2,-1.5646313E-1,-6.0033713E-2,3.895444E-2,2.0176128E-1,-1.7151214E-1,-1.19097166E-1,-1.11467905E-1,1.0756937E-2,-8.174828E-2,8.0413386E-2,1.13725156E-1,2.632647E-1,-2.2450244E-2,-1.640246E-1,-1.6346963E-1,-8.7569416E-2,-1.5026309E-1,-7.6426856E-2,-2.8172322E-2,4.022347E-2,-1.9904353E-1,-3.277871E-2,-3.8574885E-3,1.490234E-1,5.7287578E-2,2.3006031E-1,2.3654674E-1,3.891432E-1,-1.8663887E-2,-1.4860998E-2,-2.1749558E-2,-1.4767113E-2,-1.0473124E-2,-6.771017E-3,-1.8145658E-2,-1.2412691E-2,-9.937441E-3,-5.942495E-3,-4.0680035E-3,1.3091464E-3,1.8368773E-3,9.697916E-3,-2.4898794E-2,-1.6024625E-2,-6.8438053E-3,3.0198817E-3,-1.8922413E-2,1.1718595E-2,1.0987176E-2,3.4811415E-2,1.5480141E-3,8.218992E-3,1.787082E-2,2.576877E-2,1.6272724E-2,3.2554492E-2,1.7405294E-2,3.996147E-2],"categories":[],"categories_nodes":[],"categories_segments":[],"categories_sizes":[],"default_left":[0,0,0,0,0,0,0,0,0,0,0,0,0,0,0,0,0,0,0,0,0,0,0,0,0,0,0,0,0,0,0,0,0,0,0,0,0,0,0,0,0,0,0,0,0,0,0,0,0,0,0,0,0,0,0,0,0,0,0,0,0],"id":25,"left_children":[1,3,5,7,9,11,13,15,17,19,21,23,25,27,29,-1,31,33,35,37,39,41,43,45,47,49,51,53,55,57,59,-1,-1,-1,-1,-1,-1,-1,-1,-1,-1,-1,-1,-1,-1,-1,-1,-1,-1,-1,-1,-1,-1,-1,-1,-1,-1,-1,-1,-1,-1],"loss_changes":[3.5354225E1,4.8335667E0,1.1004635E1,5.019684E-1,4.3194957E0,1.5029203E1,2.5798588E0,2.2504234E-1,3.6340547E-1,9.224396E-1,5.746884E-1,4.404789E0,1.2922958E1,1.2999554E0,8.597393E-1,0E0,1.7514324E-1,6.262374E-2,4.7440052E-2,2.4244213E-1,1.3572001E-1,1.1201353E-1,3.5172644E-1,3.9802265E-1,1.2215023E0,2.2549337E1,9.564861E0,1.4031771E-1,4.616618E-2,1.4974976E0,3.855753E-2,0E0,0E0,0E0,0E0,0E0,0E0,0E0,0E0,0E0,0E0,0E0,0E0,0E0,0E0,0E0,0E0,0E0,0E0,0E0,0E0,0E0,0E0,0E0,0E0,0E0,0E0,0E0,0E0,0E0,0E0],"parents":[2147483647,0,0,1,1,2,2,3,3,4,4,5,5,6,6,7,7,8,8,9,9,10,10,11,11,12,12,13,13,14,14,16,16,17,17,18,18,19,19,20,20,21,21,22,22,23,23,24,24,25,25,26,26,27,27,28,28,29,29,30,30],"right_children":[2,4,6,8,10,12,14,16,18,20,22,24,26,28,30,-1,32,34,36,38,40,42,44,46,48,50,52,54,56,58,60,-1,-1,-1,-1,-1,-1,-1,-1,-1,-1,-1,-1,-1,-1,-1,-1,-1,-1,-1,-1,-1,-1,-1,-1,-1,-1,-1,-1,-1,-1],"split_conditions":[-2.3667406E-1,-2.813792E-1,8.4549385E-1,1.1740978E0,8.715472E-1,-1.8497519E-1,-2.2052388E-1,-7.643541E-1,-3.0262688E-1,8.904845E-2,-2.61208E-1,-2.689259E-1,-1.0278592E0,1.4237123E0,1.4708432E0,-2.2450244E-2,-3.0262688E-1,-3.1427398E-1,1.4708432E0,-2.1649136E-1,-2.6291865E-1,1.5515603E0,1.5218443E0,-2.1216178E-1,-2.0415965E-1,1.6893652E-1,-1.816304E-2,1.0962832E0,1.586252E0,-2.0415965E-1,-2.1656203E-1,-1.8663887E-2,-1.4860998E-2,-2.1749558E-2,-1.4767113E-2,-1.0473124E-2,-6.771017E-3,-1.8145658E-2,-1.2412691E-2,-9.937441E-3,-5.942495E-3,-4.0680035E-3,1.3091464E-3,1.8368773E-3,9.697916E-3,-2.4898794E-2,-1.6024625E-2,-6.8438053E-3,3.0198817E-3,-1.8922413E-2,1.1718595E-2,1.0987176E-2,3.4811415E-2,1.5480141E-3,8.218992E-3,1.787082E-2,2.576877E-2,1.6272724E-2,3.2554492E-2,1.7405294E-2,3.996147E-2],"split_indices":[8,8,0,0,0,8,8,0,8,0,8,0,0,0,0,0,8,8,0,1,8,0,0,8,8,8,8,0,0,8,7,0,0,0,0,0,0,0,0,0,0,0,0,0,0,0,0,0,0,0,0,0,0,0,0,0,0,0,0,0,0],"split_type":[0,0,0,0,0,0,0,0,0,0,0,0,0,0,0,0,0,0,0,0,0,0,0,0,0,0,0,0,0,0,0,0,0,0,0,0,0,0,0,0,0,0,0,0,0,0,0,0,0,0,0,0,0,0,0,0,0,0,0,0,0],"sum_hessian":[5.595E3,2.113E3,3.482E3,9.28E2,1.185E3,3.001E3,4.81E2,6.59E2,2.69E2,6.86E2,4.99E2,7.67E2,2.234E3,1.99E2,2.82E2,7.8E1,5.81E2,1.1E2,1.59E2,3.24E2,3.62E2,2.15E2,2.84E2,2.25E2,5.42E2,1.003E3,1.231E3,1.35E2,6.4E1,2.35E2,4.7E1,2.31E2,3.5E2,2.2E1,8.8E1,8.3E1,7.6E1,1.45E2,1.79E2,1.52E2,2.1E2,1.65E2,5E1,2.06E2,7.8E1,9.6E1,1.29E2,3.46E2,1.96E2,3.96E2,6.07E2,1.03E3,2.01E2,5.1E1,8.4E1,2.5E1,3.9E1,1.3E2,1.05E2,3E0,4.4E1],"tree_param":{"num_deleted":"0","num_feature":"17","num_nodes":"61","size_leaf_vector":"1"}},{"base_weights":[-2.351552E-3,-9.169675E-2,5.1921114E-2,-1.3743326E-1,-5.1768497E-2,-2.3323728E-1,6.56075E-2,-1.5378831E-1,-1.00853354E-1,-9.7185865E-2,1.8473595E-2,-6.906892E-1,5.0982974E-2,5.1333085E-2,3.3903265E-1,-2.1268716E-2,-1.4674266E-1,-1.4413348E-1,-7.476637E-2,-1.6479605E-1,-7.869185E-2,-1.4930817E-2,4.504119E-2,-8.902515E-1,-4.9438635E-1,-4.274917E-1,1.6996436E-1,-3.477255E-1,7.311432E-2,2.8484607E-1,7.3756987E-1,-1.7000092E-2,-1.3179836E-2,-1.8560406E-2,-1.2568638E-2,-8.80247E-3,-5.021209E-3,-2.5711069E-2,-1.48960715E-2,-1.0450386E-2,-6.1107026E-3,-2.7525271E-3,2.2647383E-3,2.5509733E-3,9.713302E-3,-3.1248812E-2,-9.701941E-2,-6.1564483E-2,-2.3088034E-2,-1.03274405E-1,6.2071886E-3,-9.870296E-3,3.6070317E-2,-4.7408838E-2,-2.2619149E-2,6.0470095E-3,3.502386E-2,1.7041022E-2,5.838408E-2,1.0109714E-2,7.67313E-2],"categories":[],"categories_nodes":[],"categories_segments":[],"categories_sizes":[],"default_left":[0,0,0,0,0,0,0,0,0,0,0,0,0,0,0,0,0,0,0,0,0,0,0,0,0,0,0,0,0,0,0,0,0,0,0,0,0,0,0,0,0,0,0,0,0,0,0,0,0,0,0,0,0,0,0,0,0,0,0,0,0],"id":26,"left_children":[1,3,5,7,9,11,13,15,17,19,21,23,25,27,29,-1,31,33,35,37,39,41,43,45,47,49,51,53,55,57,59,-1,-1,-1,-1,-1,-1,-1,-1,-1,-1,-1,-1,-1,-1,-1,-1,-1,-1,-1,-1,-1,-1,-1,-1,-1,-1,-1,-1,-1,-1],"loss_changes":[2.7023401E1,3.8388176E0,1.3546272E1,5.7138824E-1,3.5939727E0,2.0707933E1,1.2897575E1,2.4931717E-1,3.3471227E-1,8.422942E-1,3.9382386E-1,1.9495277E0,5.708687E0,2.737043E1,3.3315468E0,0E0,1.8857479E-1,6.3883305E-2,5.8411002E-2,1.7512846E-1,2.3826647E-1,9.385891E-2,2.4882716E-1,1.0362759E0,9.1228676E-1,5.990295E0,4.1352253E0,2.396019E0,1.0434822E1,4.896002E0,2.8210926E-1,0E0,0E0,0E0,0E0,0E0,0E0,0E0,0E0,0E0,0E0,0E0,0E0,0E0,0E0,0E0,0E0,0E0,0E0,0E0,0E0,0E0,0E0,0E0,0E0,0E0,0E0,0E0,0E0,0E0,0E0],"parents":[2147483647,0,0,1,1,2,2,3,3,4,4,5,5,6,6,7,7,8,8,9,9,10,10,11,11,12,12,13,13,14,14,16,16,17,17,18,18,19,19,20,20,21,21,22,22,23,23,24,24,25,25,26,26,27,27,28,28,29,29,30,30],"right_children":[2,4,6,8,